3.255953750400235047e-01
1.001994712583527680e-01
1.377242618247178085e-01
9.657984122007004513e-02
2.534426588716414547e-02
1.592962196320827362e-01
9.951333124538060126e-02
1.387852636059411227e-01
3.255694516248321402e-01
-6.820743318788209664e-02
2.777151416052233701e-01
1.833970254142452960e-01
5.545620041839247061e-02
1.514239388352365268e-01
2.678799544310919156e-01
3.595347579765078017e-01
1.420919455819700805e-01
-1.705200576246094224e-01
1.329421600235171641e-01
2.501114488954625081e-03
-4.069087264163098391e-03
2.618390214863385856e-01
1.284891663005806317e-01
2.090138262008221781e-01
1.277226328024214375e-01
-8.825761249992468416e-02
-2.099956698644178943e-01
1.297172589479766991e-01
-1.081070302612529704e-01
1.300959422612665561e-01
7.096351055695071519e-02
-1.204482270040545117e-01
-1.442803906841947092e-01
6.390961817108781196e-02
-3.462569535908657792e-01
7.921826933386844072e-02
2.337585906718943896e-01
5.068084415917516461e-01
1.044690765087747664e-01
1.524588753820609599e-01
3.273316471049355497e-02
5.252614657401035725e-01
2.744067688042440278e-01
-1.588173304307105849e-01
-9.243964338750383647e-02
-6.845735427641848336e-02
-6.137771568672963085e-03
1.152756458143365664e-01
-1.090106710782465654e-01
1.684945731585882622e-01
6.212909925459488697e-02
4.875386031004086407e-01
1.376251840931911330e-01
2.895943901481649596e-01
-3.962998396650808663e-01
5.071349589316454659e-02
-1.769264839601334405e-01
3.248096267478166044e-01
3.602314363716997980e-01
8.443500421995626948e-02
1.251750474149616044e-01
-9.397149451758889105e-02
1.859393035430217389e-01
4.090950960652858237e-01
-8.493262100136199366e-02
8.309002019679265216e-02
2.460685006794701424e-01
4.479718201254648813e-01
7.082700587413898186e-02
-5.977230550634725359e-02
1.749218615978634650e-01
3.740859058235002643e-01
6.508779040151356499e-02
3.839188645426067081e-01
7.165664646163159845e-02
-2.028619659451115775e-01
2.144621853959114421e-01
3.683639252486465288e-01
4.727372535506842166e-02
-1.928685926825971786e-01
4.636020086310335860e-03
2.138884404410279494e-01
1.418502645226413228e-01
-9.573616454938697895e-02
3.143682989129842342e-01
4.958480469308927385e-01
4.045221076069228927e-02
9.545467693667802900e-02
4.447737860845707991e-01
-3.269262284381160150e-02
2.987795848126693077e-01
-7.304208698898280450e-02
1.898499933004629825e-01
7.868082059656274219e-02
4.329097789727921475e-01
-1.113385098974755266e-01
2.724495210634719777e-01
1.705625427043663822e-01
1.136028877608903642e-01
2.822646907358227764e-01
