1.451635226519175598e-04,1.004282294258560407e-05,-6.675192244496639771e-05,6.996158618824107125e-05,-3.494888867598680077e-05,-4.139525374639253924e-06,7.279249578988701336e-05,-8.384917191775613000e-06,3.776133802911483758e-05,1.769990889845587188e-05,7.041205466993383883e-05,4.421897128006524236e-05,-1.232635416002443910e-04,-7.725447237528438519e-05,1.132711308189389540e-04,-1.012927671774871652e-04,-1.306126966026248967e-04,-1.817477695177825638e-05,-5.626196919793477557e-06,3.988736796753744140e-05,-1.215858325277830021e-05,6.988294718675480330e-05,3.530840112180179792e-05,5.729521908799510045e-05,4.745806123421616904e-05,-6.056910464841862226e-05,-7.931056682240656840e-05,4.189401987786544901e-05,3.944111140705972219e-05,-5.920097448901799229e-05,1.410352718417011988e-05,-5.242642856110340471e-06,-1.337754096469014315e-05,1.117680836260136299e-04,-8.936991869741278541e-05,-1.605174761931864875e-05,-5.540151845406419235e-05,-1.981471874171615414e-04,4.625066010101489764e-05,7.130843726530686460e-05,1.393479962718006590e-04,5.886998562020287327e-05,1.106625960512039368e-04,5.535539495519621421e-05,-3.561401597240378039e-05,5.675501062929505280e-05,-6.544638894721069831e-05,7.206923728776719806e-05,2.460046180624974335e-06,-5.549243948993824016e-05,-7.177273295932588620e-05,-4.468494184228057932e-05,8.960378893238234318e-05,9.275362432203913278e-05,4.278602459002742907e-05,2.755283529993408603e-05,4.611764145256192377e-05,3.234484457919941096e-05,-1.334009019857046461e-05,-3.410323516613393004e-05,4.160794087842039138e-05,7.320789932609928700e-05,-1.728359668984649474e-04,7.605251849297226723e-05,-2.216889634176949958e-05,1.502601100368770690e-05,-2.253276048978903893e-05,7.719847322315409176e-05,1.626562402825331105e-04,6.762387723163437844e-05,-1.196339758483597855e-05,-5.028543251048541774e-05,7.055505813350272280e-05,4.608701431489660666e-06,-3.195461242571946415e-05,-7.195497461019079220e-05,-4.037996586073427496e-05,-1.964059004933793168e-06,6.741190203963696396e-05,5.041238029234736102e-05,-1.632092982324181537e-05,-7.569407135372854638e-05,-1.390650233650652377e-05,-3.353271148538131564e-05,-1.413553320495664767e-05,-6.865689486619529246e-05,3.155896746740120687e-05,-3.753852737479732081e-05,4.945537399980949524e-05,8.025275166224224836e-08,-1.491039616176972123e-05,8.263687121764524003e-05,-5.613925018357584764e-06,7.047470365437504545e-05,-1.793444933246923854e-04,5.128883250517364491e-05,4.357999116413940134e-05,-5.637795751822751377e-05,-4.784768471253582009e-05,-1.268622357500325117e-05
-4.028447727407310976e-05,-1.143514051612730653e-04,-3.226482420005937228e-05,1.867985782421205298e-05,-6.848703863133281629e-05,-5.956253099304786104e-05,-4.588827786727717986e-05,3.266529111950011548e-05,6.795927293735560940e-05,5.757454147645595278e-05,-1.250777331699419622e-04,1.981524262743979579e-05,7.196217532038979745e-05,-1.184666593341332573e-04,1.958937822518244275e-07,7.352798422581985208e-05,-4.223733001199374770e-05,4.024383478566323724e-05,-9.214772226254810657e-05,8.673473635045856733e-05,-1.211969794000529303e-04,-2.060225401408184999e-05,-4.434060939524856327e-05,-9.058319151417703143e-06,-1.953043271769344831e-04,-7.402908085886175324e-05,-1.065520298672900705e-04,2.746759243238260806e-06,1.197936337246236367e-04,-2.714168161189361552e-05,-6.585422005363466679e-05,-5.611484984673141796e-05,2.877388707435700769e-05,1.326364522586407702e-04,3.912978349625683691e-05,4.417533167944214081e-05,1.664909088953394028e-04,1.007276042043346083e-04,-1.251023243324104388e-04,-4.600393415436256073e-05,-1.210775712404130378e-04,9.713515721962396807e-05,3.680972753966535980e-05,-3.075851800286581020e-06,8.925054154420350083e-06,1.711446937106029452e-05,3.768942722529483895e-05,-1.442313919923025856e-04,-1.613029255975314376e-06,-4.657817649068278131e-06,3.590380806978423433e-06,5.863748594186963040e-05,1.718718194842914961e-04,-7.117478756065406841e-05,-4.490083422726787269e-05,7.344474540117230162e-05,7.617399463482933686e-05,-2.625353226141022685e-05,1.154652780277586117e-05,7.727314937946890830e-05,3.331207491738922297e-05,2.662352397349596210e-05,2.329207495807343622e-05,9.336550740812373515e-05,8.119093665546919968e-06,6.981329290975593621e-06,-8.312708139693862318e-06,2.473937114186647158e-05,1.272309240078981900e-05,-6.563164600335114974e-05,3.329361899508997481e-05,3.605532896855499910e-05,-5.769536056724762469e-05,-7.163027583383253089e-05,-4.078039434335321823e-05,4.606713626754540891e-05,-8.490917025143269905e-05,-1.306837674489159766e-04,-2.710821896096615297e-06,-1.506831893769495134e-05,-3.983285346513501144e-05,7.115901803553999487e-05,1.193558085966921108e-04,-6.913085207728059708e-05,1.980976942812414363e-04,-8.528183513087318670e-05,-2.673491099460880186e-05,9.673409149605254130e-05,-2.533149730838072652e-05,-5.215550448516505271e-05,6.376201180675289903e-06,1.753202252074064770e-05,1.972023843213920326e-05,-6.225567045840654562e-05,1.273204974678376422e-04,7.639940416608552573e-05,-6.935815241137363780e-05,-2.254767510305061848e-04,8.668953637787390250e-05,-9.834731650346748987e-05
1.757015894473610152e-04,-3.793461194193029475e-05,-2.888600857937771143e-06,-6.663271773745217260e-06,-2.075343657973655108e-05,3.048546378772194545e-05,-3.086984912074464945e-05,-2.116557739614473863e-04,2.259500012827099646e-05,3.332498950389237884e-05,-4.381152782675415121e-05,8.308534229027229271e-06,2.027286419077521665e-05,-1.869233520153236683e-05,2.924975381220064563e-05,9.745943871103019437e-05,-4.689550977555667828e-05,-2.446924515264457031e-04,1.238968782967968713e-05,3.220939481498684539e-05,-8.450707788579733533e-05,-5.063582284310425339e-05,-1.018789706307132037e-04,-6.008690249164578770e-05,8.253334958787614814e-05,1.481849306222661955e-04,1.364662671095764185e-04,-5.608680486473713935e-05,5.587182843852625579e-05,6.957731204413028264e-05,-1.345955290727422629e-04,-4.089303235870340699e-05,-4.792240838214762404e-05,-2.708752711093111255e-05,7.195993960529335786e-05,1.077036191301095888e-04,-2.329851151221097816e-05,1.877359077910671344e-04,6.178566056410634926e-05,-2.888868625284438487e-05,6.680579537290666460e-05,-6.628316262835343512e-06,3.209314263662120244e-05,8.125152656696797867e-05,2.653423638822199237e-05,1.913959095090071968e-06,-1.009116528402213863e-04,-1.807390735386865660e-05,-3.006968855030648578e-05,-1.019405520803507361e-06,3.765910045997159259e-05,6.092777863060655643e-08,4.078301507274951181e-05,-4.215557866057869475e-05,-9.030121066342242100e-06,-1.550345287978093531e-04,-2.741574278560920264e-06,-8.568902828114011053e-05,3.860147128749254392e-05,8.683418616429803671e-05,-3.732436258906262640e-05,-1.743399116909490317e-05,6.504555749160719760e-05,-7.680074563569002884e-05,3.422493484703804765e-05,-6.419517650150350784e-05,-2.540021709728427612e-05,-1.038821013520683454e-04,-3.723277830334063187e-05,8.429351856294305814e-06,1.247239784460152953e-04,-9.327409037189616614e-05,2.066019239863972984e-05,-7.912291458950802879e-05,8.852948249398577009e-05,6.693287847221204942e-05,-3.193185551197272255e-05,-9.402461225457849715e-06,-1.039054383412404097e-04,4.805365941419398654e-05,7.702552192789801432e-06,-3.139617550732976811e-05,-6.136063289963844091e-05,-3.395080763266235859e-05,-1.645717018606014236e-04,1.284882971642433065e-04,6.568230093652351596e-05,-2.127692691073789269e-05,-1.737746233373161508e-05,-7.582443653788731759e-07,2.618023876509140458e-05,-6.777192512202710609e-05,-1.612053152298401751e-06,2.331881548574349036e-05,-1.229820977077655667e-04,8.200480859082379679e-06,1.203838761327974245e-05,-3.542134324314464639e-05,1.159720083497759016e-04,8.551110554854101566e-06
-9.632913626768106383e-05,8.455052166857328366e-05,-3.441379952434519841e-05,-8.537618692942638239e-06,8.565008004235556444e-06,1.328467457314630803e-05,-8.060011133996587327e-05,6.074999057302547182e-05,7.079433667155070494e-05,8.590729163358459374e-05,1.001658744962027508e-05,-1.017245650694752646e-04,1.268711751333447555e-04,5.473953934246377569e-05,3.306903367175760696e-06,-2.231887609467278957e-05,1.022276203392081418e-05,5.339437002459258131e-05,6.599348519992237093e-05,-5.377798198467635900e-06,6.827428425026056745e-05,6.601114815669923200e-05,-7.153121445007366917e-05,-1.048033216038057397e-04,4.871791078917709082e-06,-2.010916798464622982e-05,-5.550588134305141461e-05,-5.558823664263296964e-05,-5.911025576724646780e-05,-5.425831357351651584e-06,-4.408831174397217118e-05,1.027101593414918215e-04,-1.008482583579543818e-04,-4.909759469141916372e-05,7.025678385711892917e-05,-6.315595736759431031e-06,-9.031010462428491075e-05,-7.387013602145539491e-07,4.490387182669793199e-05,1.515474151974324562e-04,-2.601706942506607349e-05,2.703063334857311125e-05,1.545175634364846274e-05,3.630018852667470775e-05,1.228605907308861158e-05,-2.097424553446568355e-05,-6.838097930576456616e-05,-7.783186737271432316e-05,3.015499686899339197e-05,-4.424517775868346529e-05,9.528072036147722463e-05,9.372983593670344046e-05,-7.773355723928230101e-05,4.355562995596618138e-05,6.852130256230788002e-05,1.139056802042457404e-04,-1.205866126981393625e-04,6.424589222709638301e-05,4.658738137190158101e-05,-2.700898108081087657e-05,2.667040458177269316e-05,-5.342382680707847035e-05,-6.362279412338889576e-05,4.187915684799843277e-05,-3.552660693269370370e-06,-5.619254023620195819e-05,-5.587593368037887105e-05,-1.973596122432527374e-06,-1.442430055492733358e-05,-7.286562303630856740e-05,1.317656676926237886e-04,1.259205966806883252e-04,7.972031077907152004e-06,4.655822900614944247e-06,-7.936422127982796504e-05,-6.612837720221408544e-05,7.387112303280502477e-05,-4.577915915396898528e-05,-2.508540433854107433e-05,-4.763077467564110260e-05,8.440038023885882334e-05,-2.226530767961135333e-05,8.195145223005777886e-05,-7.555608223492421246e-05,3.087744153226079516e-05,-3.369932402105368496e-05,-6.293326296532124613e-05,-1.170482615551505389e-04,2.952161503766819019e-06,-8.797834847449988367e-05,4.594857484620496038e-05,-4.830206194832696744e-05,-1.044356851974081833e-04,-6.765031051048424565e-05,-1.015749847023883143e-04,-2.341864734101704507e-05,4.195394733342156364e-06,1.282147743651461727e-04,-4.721355807999451305e-05,9.724344419427231065e-05
7.012206880442026788e-05,3.138989049370308909e-05,-6.066004059979378238e-05,-2.798844698291477604e-05,1.443492848987791954e-06,-2.303280669140215660e-05,5.702982472932115096e-05,-4.113688109397872951e-05,-1.577038515727179516e-05,6.422221246973578496e-07,4.915799409226639385e-05,-9.418833194682926346e-05,5.777191688861793361e-05,-2.381248946373835086e-05,6.544907308413012721e-05,-2.366498931419293419e-05,-1.053330207838576563e-04,-4.337240862294848730e-06,-7.732506154920658069e-06,-1.191531514992846504e-04,3.721284869857608655e-05,4.660963736591505139e-05,5.712434309647691940e-05,-2.955215588907156340e-05,-1.116576675242866921e-04,1.044232044424210810e-04,3.097660254497682712e-05,3.455748900449101508e-05,2.019772877552728104e-05,-3.255072451991807150e-05,6.240937979174042036e-05,-2.647928279805608244e-05,3.155498700544672310e-05,2.070807488820363557e-05,-1.896715799865634694e-05,-2.457367731183742786e-05,-2.452556755385139581e-05,2.461122436919846123e-05,-2.670917221474129890e-05,6.548617262348462845e-05,3.744415324433706315e-05,-1.007776104473854720e-04,7.616872430593426219e-06,-7.011415076974285461e-05,8.112775623422838683e-06,2.823128190562243636e-05,3.815265084070961052e-05,4.260237590596174312e-05,-7.004461539995378348e-05,1.617305449402400798e-04,2.794829609344571197e-05,-2.881254425631260628e-05,2.469780996018562284e-05,3.724365953307779846e-05,1.203463122172797104e-06,4.565350540067405458e-05,-4.086734014138141709e-05,9.436181576756032773e-05,-8.705329809035436991e-05,-1.419468709195451127e-04,4.110729247106196784e-05,1.341523638326926646e-04,5.197760784510134047e-05,-4.584366755203151002e-05,-1.385189787930129395e-04,-9.664648283895899649e-05,-2.432789862913521488e-05,2.334008242515946119e-05,1.518104003040537378e-04,-6.818636497518049046e-05,-3.071904910635938187e-05,2.850874345980711365e-05,1.433451963215013095e-04,-1.763078757802868845e-05,-9.914157130789518572e-06,1.946094892489588505e-05,5.996139398220677544e-06,2.980537949818039861e-05,-1.893921258849575674e-05,-8.266453417613830665e-05,1.476569424817133129e-05,-5.715967057688542820e-05,-2.448126651375137042e-05,-5.498362294210961738e-05,-3.091694100659977669e-05,1.730138053313675904e-05,4.983446811869215646e-05,2.169172438600397294e-05,-3.702353284006406470e-05,-4.571694516021004688e-05,-8.420680379339628985e-05,3.357401373879819407e-07,-6.807540615957887126e-05,7.310026796258898185e-05,4.638121772457966637e-05,7.821897316881535082e-05,-1.290434004518775137e-06,-3.718056769227533605e-06,1.036125995727561186e-04,5.644910719039123150e-06
2.817078686366858599e-05,-1.881380896745255636e-05,-7.519925134640352527e-05,-2.119057462977484647e-05,-5.810881427137808060e-05,5.481962446084918489e-05,1.545951552758629679e-05,-5.560419787469379456e-05,2.209024383462697167e-04,-3.313697592373378943e-05,-7.985810785490623316e-05,9.972490353480297528e-05,-1.251150286682699037e-04,-8.281309697033072635e-05,3.037012416557730067e-05,-2.135610423977850988e-06,-4.432858690114443019e-05,-1.223103928780262134e-04,-7.015003457028082604e-05,-7.437913777316937911e-05,-7.299003967827285145e-05,4.563149057202461667e-05,1.131462042438700981e-05,-3.898776656565474145e-05,-1.429817541497552332e-05,5.276119803540180316e-05,-1.876754048752957464e-04,2.062843320650293015e-05,4.993319672208505110e-05,-1.067144850532674577e-04,-6.098492082567427377e-05,1.645359856143455127e-05,-5.292376172035695046e-05,-4.678339509014837794e-05,-9.489391902688737522e-05,-7.088079254495526762e-05,1.590847889524545788e-05,5.350034945329038721e-05,2.882509576917232266e-05,-2.441339784999628951e-05,9.058852128706831484e-05,4.113257265735203121e-05,7.526269026940482542e-05,-4.318220057152078481e-05,1.032546269226788036e-05,-1.038751671939890450e-06,-3.091953614890237428e-05,1.558273061321949492e-05,1.449145840938179278e-05,1.415642469900978639e-04,-7.634329515600049500e-05,2.759948975810510164e-05,1.513539947728395475e-05,-2.674777096694115343e-05,-6.017535843518993441e-05,1.767336231673058606e-04,-4.026869758508340181e-05,1.454651729005841162e-05,4.728594425967603014e-05,6.467058959941046170e-05,2.904741103405251597e-05,5.317442471729427544e-05,-2.595741665400002406e-05,2.976749098625280560e-05,-2.710391622264658471e-05,1.389676730437698690e-05,1.136235667521656988e-04,-2.230055852971269374e-05,-8.928936706096477188e-05,6.138865643349142862e-05,3.051555672876265094e-05,-1.025084206427927757e-04,-1.120602272677784163e-04,6.397532922831020575e-05,7.492889158745073103e-05,2.177403706559849687e-05,2.736385937898779425e-05,-1.401412083970898532e-05,-1.050273897932636210e-05,4.103592497972850220e-05,1.361445404835576656e-05,1.113060680543715943e-05,-1.162481256684449993e-04,7.952844799332107106e-05,1.463437187526142037e-05,8.654013228867466542e-05,-1.398737123690476964e-04,6.941180367416372094e-05,-6.927183765044215430e-05,-1.079499606484192205e-05,-1.540504302619455964e-04,-5.423362167588545376e-05,4.387239693487428492e-06,2.199301192217159448e-05,4.009483650325048985e-05,5.571428550129597381e-05,-6.137549921833371908e-05,-3.267654145967425366e-05,9.436451666428097220e-05,-5.319920162858017527e-05
4.806240936185091019e-05,-1.016170559650495295e-04,6.584852824367172920e-06,-2.424823708010389963e-05,2.537457819786842700e-05,1.368555219470417024e-04,-3.941563179136709459e-05,8.429468855746451733e-06,-3.087373807340190957e-05,3.229792481367352384e-05,4.705555174927939204e-05,2.574051481350294500e-05,-1.122204463182560819e-04,7.779330529832412960e-05,1.528180943065730890e-04,8.957484151818076109e-05,7.879052142148717719e-06,5.088102875547857848e-05,-1.510972890657120681e-05,-1.004443462380010411e-04,4.877420558575937173e-05,-1.010367484745981905e-04,1.127437018344725790e-04,-7.170044774235035171e-05,3.351599753092032665e-05,9.837124845345445907e-06,-2.307310891038963233e-05,8.168626845170706165e-05,-2.656027539236141470e-05,5.071803823193915783e-06,-2.800027133833826539e-05,4.326257833913989097e-05,-5.851265889331289436e-05,3.340672948425036141e-05,-5.249676820829745098e-05,-2.973315841354272197e-05,8.560984116152040133e-05,-1.080730874327221342e-04,-3.942718948900608374e-05,8.778252456844214482e-05,-1.293357120293052040e-05,-3.833365233822194715e-05,-7.522772354654710390e-06,-2.636482210469471790e-05,-4.018152098469892464e-05,-9.697850208088692212e-05,1.286767328145096078e-06,-1.854964018619881992e-05,-1.291981473715434713e-05,-5.966296245783241824e-05,-1.062977243647565337e-04,1.626081044216107411e-05,-5.929670467697174558e-05,8.293188631225142471e-05,-7.316851232475113300e-05,-2.790119491707468022e-06,-6.307922856020062079e-06,3.357561455103897366e-05,-1.596208752949835607e-05,-6.075838634367700057e-06,7.043888988249887137e-05,-1.469504078862524167e-05,-2.818540522092038880e-05,3.401165484503308804e-05,-4.800411374568581318e-05,3.935375501603658962e-05,-8.180096257030627138e-06,-1.296592133838470366e-05,1.481401340661104009e-04,-9.445885765748167839e-05,6.027539073465439079e-05,3.769460572882814785e-05,1.850363051017041296e-05,-1.159020347098239798e-04,-7.889507230936637628e-05,-1.178397106565760475e-05,-9.983705905099126251e-08,-5.954730058337403875e-05,-3.413539005957402131e-06,-6.865926415046755271e-05,3.709468543998971411e-05,-7.588399192413499127e-06,-1.536688297112978022e-05,-3.808374143896630862e-05,-2.625288096203128348e-06,1.222093853967291632e-05,7.857654195528373869e-05,-5.675064907201593797e-06,1.371212021843679185e-05,-1.943548384657093145e-04,5.797975127691184447e-05,-8.871667655721739024e-05,-5.784262506501510061e-05,1.710310249552252874e-05,-6.761448055125434092e-05,1.511015060372774216e-05,8.085177722854073885e-05,3.341947040597873647e-05,7.067473464681386312e-06,6.736711208247442610e-05
-7.446882315233555234e-05,1.439294119587248341e-04,-3.171510996828352603e-06,5.920801879691501288e-05,-5.623204897621903538e-05,-3.231851210509229102e-05,1.152309031308126002e-04,-8.179478037041589369e-05,-7.231072284065036314e-05,2.961278355914218191e-05,1.594741868139327296e-04,-3.812314126922535629e-05,5.048740810636350167e-05,-1.815890920702080511e-04,-2.892692708832925608e-05,-6.078347267155331803e-06,-1.011160429200892582e-05,-8.083893138915899544e-05,5.328731072186558885e-05,-8.578045253540439474e-05,-7.830338246072014328e-05,3.420351505751425008e-06,-2.801623545924783373e-05,1.838713440896719590e-04,5.008821479474123028e-05,4.888135463039676638e-05,-7.099356421717398821e-05,2.528913895698080752e-05,-7.566801080551515666e-06,-7.393110266313917362e-05,2.490428766534286219e-06,-1.829150365113734123e-05,-9.939629023030809745e-05,8.408865849686954910e-06,3.778583462538027428e-05,5.457298425695567467e-05,5.277683457855011229e-05,-2.655474902891824600e-05,4.596282453333886797e-05,-2.240092865465793208e-05,-1.042554801278077208e-04,-9.632541584717440046e-05,-1.069752344363401577e-04,1.728010637759198084e-04,6.614104545458496340e-05,-6.766968745265658698e-05,-1.614804510702828969e-05,2.183813369081269698e-06,-7.299274903051126246e-05,8.567650280756636952e-06,-1.131082207416162449e-05,-2.554886718305557843e-05,-7.849763458150885880e-05,-1.203405196493345184e-05,-1.699577665510941516e-05,-2.965907219984057769e-06,-2.008363450140854769e-05,1.058100017421179974e-04,-3.985634748804595259e-05,-3.849139797027353795e-05,-3.937304640703650891e-05,4.595294016623550259e-05,-5.222905359677590002e-05,6.612937855182052227e-05,-4.979705007781335378e-05,5.085615735862878805e-05,8.243696240344221260e-05,1.028586726565079376e-04,6.301473788436472449e-05,-1.523688629281385340e-05,8.476700807348464006e-05,-2.348735663654222860e-05,-7.657862786640327565e-06,3.938101341873681251e-05,-1.706061529576081672e-05,8.135129588905509323e-05,-8.000351316383787930e-05,-6.204276155922552590e-05,-9.480664513637143481e-05,-1.248199780464449382e-04,4.167003762566408526e-05,-2.130846289919093603e-05,-4.381932564336303901e-05,-5.671017802344893933e-05,3.120352207115759856e-05,1.804875721727203312e-05,9.731067364702866414e-05,-9.032584198306501614e-06,-3.205436194671787219e-05,-4.535173441958060409e-05,-2.469007467346505250e-05,2.636025119457177397e-05,-6.188398222615268407e-05,-1.065055602703840395e-04,-5.135074788519373111e-05,5.615891108725763308e-05,5.307581830631274175e-05,-2.843336484514881333e-05,2.338614041212086405e-05,7.503183117004624868e-05
3.670344453073418734e-05,2.706960654592351781e-05,5.872849779496699447e-06,5.830126539602429941e-05,5.801166645214416714e-06,-9.039239102110347432e-05,-9.703021629424485163e-06,4.704924875606467978e-05,-1.681692559816145357e-05,-1.155594191504957612e-04,9.040758663424411519e-05,1.217371068862488110e-04,-4.062030506999774062e-05,4.452651219409359593e-05,1.614088055135303929e-05,8.563922885974484657e-05,-2.092994516435639003e-05,-1.269390108300397311e-04,-4.281734232224399715e-05,4.258646671967982239e-06,4.281581436716774113e-07,2.186131408590983406e-05,-1.686661552562018333e-07,4.042203002165878389e-05,-3.575637310212945419e-05,-4.442976365710077575e-05,-1.644577674818258482e-05,-6.438022561587709934e-05,-8.185020945532099114e-05,-7.596576011750973213e-06,5.735271797623024280e-05,-5.063219291881195335e-05,3.373074785791667081e-05,-1.809898717059044856e-05,-5.366410167440321055e-05,-6.172349071697681038e-05,-6.076356804190736290e-05,8.160226294719210541e-05,-6.185092562433332436e-05,-9.777051861755919697e-05,-3.844771016882342612e-05,5.431289763135808919e-05,6.906816371667899069e-05,-1.328608325121670311e-04,-5.106358152489998144e-06,2.911996455037047296e-05,3.140520606030497674e-05,-5.100392237500329332e-05,6.934686432452973508e-06,7.678946072468519546e-05,6.964081759098508448e-05,-5.555897379875510567e-05,2.995951360767674286e-05,-1.658483178514893932e-05,6.197420155790482003e-05,1.614833317468704788e-04,5.153303989023495075e-05,-3.039948698506190432e-06,-3.463259895406663825e-05,-7.018763141201731371e-05,-1.141578463361140634e-04,-5.069843277501676597e-05,1.178307710489509395e-04,-7.541851961540070354e-05,-1.240499551507678709e-06,-8.778099657232118320e-05,9.904446582586152244e-05,-4.619290185610907358e-05,1.166212025464900141e-05,4.336638109507154050e-05,-8.865987718755603732e-05,4.794246529166881049e-05,-1.586679782912708044e-04,4.319951269215183087e-06,-2.307949865366365280e-05,-4.507472309378320350e-05,-1.813076869149213104e-04,-6.605995509008938545e-05,1.752566985675283918e-05,1.174912614836918129e-04,1.399075417644588838e-04,-7.459126486072896185e-05,1.324056186023018871e-04,-7.562097134999483427e-05,-9.665173986289507741e-05,-7.104205345390776646e-07,1.136428188099954472e-05,-7.643422637806807237e-05,-6.952608184693832318e-05,4.364559487822261595e-05,6.705424379275053940e-05,7.706740969465649533e-05,4.047134055097548704e-05,2.866990278394364994e-05,9.515898788649694334e-05,1.349202010430218052e-05,1.006247074504030729e-04,6.725984684683859911e-05,-9.201599360174684799e-06,1.249771130977231283e-04
-8.920919392901463751e-06,-4.841669253689765264e-05,-1.055260139401953986e-04,-5.375689020101592736e-05,-6.202132307594176704e-05,-1.910256712218943026e-06,-2.941106731377629113e-05,-9.639636035438371947e-05,6.847966747725173968e-05,2.376328476288437055e-05,6.936518416429234761e-05,6.451910711124046033e-05,7.413226900519945438e-06,1.105037686247742156e-04,-5.097680395629948367e-05,-6.740787212950968312e-05,-4.704770943261157271e-05,-5.933349955146497546e-05,-9.411537887986692245e-05,-1.536661772895389072e-05,3.113124744260667139e-05,-1.179695112259386656e-04,2.158506135260836512e-05,-5.585780978881973758e-05,7.003784093517520753e-05,-2.987129930879939689e-05,8.139612978871150757e-05,-1.469972278649503536e-04,6.983750100798743208e-05,-1.158428207697585478e-05,-5.253591772356891606e-05,6.450630299109733567e-05,7.793631825045481886e-05,-1.734827235506958436e-06,1.571203132440361920e-04,-1.383684132760314124e-04,7.266940625237792095e-05,-2.772904849883641828e-05,-8.958658289253483376e-07,2.937071192318445838e-05,-7.027347001086420915e-05,3.046082548041544416e-05,1.704087357894956689e-04,-2.123476303753337921e-04,-1.282566900185452111e-05,7.205085332921408285e-05,1.375456258885384374e-04,-2.379816933955958820e-06,2.671825089045539795e-05,-7.065446578295522512e-06,-5.247086015441260868e-06,-1.138764733371955485e-04,4.208997672459757332e-05,1.312965503825426532e-05,-6.868143369546933692e-05,-1.133273377226048944e-04,-3.084515135040973759e-05,6.247431220323609467e-05,4.514012679714370563e-05,-4.212090320546045205e-05,9.740116723215513732e-05,-3.301718228948012033e-05,5.519734649213745199e-05,-3.608361695099040372e-05,1.269832557451025419e-05,4.051354400731097650e-05,7.515137604075632636e-05,-7.462333718763143381e-05,1.129687100652906163e-04,-5.459570688342856335e-05,5.132754214612771272e-05,-2.537890734950996942e-05,-5.511801294647295776e-05,-3.783408139233730488e-05,-8.542095548854912674e-05,-9.722030336763453856e-06,-4.303378052319228848e-05,5.673154573552039767e-06,-4.662682599937654647e-05,-1.927484885979755739e-04,4.517268208743761646e-06,8.600483243871252369e-05,-4.972259142070725089e-05,-6.180530898363978962e-05,1.086262835325225977e-05,5.119219357430216359e-05,-9.234062537754476996e-06,3.985641998873440910e-05,2.759073843813874638e-05,4.066336958134314305e-05,1.918900633477961461e-04,1.155374832630848519e-04,6.118119322423486660e-05,-9.168584145777924205e-05,-1.794374448828875719e-05,-7.570764721278865941e-06,9.636120134362510293e-05,5.752832719831857167e-05,8.684709936584410217e-05,-3.786966577762908542e-05
-3.181858869482105320e-05,6.042414032539513260e-05,-3.982026232807576061e-05,5.988414703104890752e-05,-9.134761885564734204e-05,-1.307019101920443178e-05,-6.988428465751718131e-06,-6.202479445458359544e-05,5.308920267566791293e-06,-3.388472624573810407e-05,-2.286840412389799818e-06,-5.688376055956074226e-05,-8.922745810032419931e-05,-9.591692876511159305e-05,-1.586812535739019010e-04,9.412932160890882208e-05,3.191354071181279193e-05,-6.151890418715715665e-05,7.121580663450787440e-05,4.550685347698094362e-05,1.771778074767795135e-05,6.302601325655228324e-06,1.029251824967516462e-04,4.542806296673727375e-06,4.558375787082640554e-05,-7.658703726688902787e-05,1.684633737194747422e-05,4.614170714892551391e-05,-9.187093346222023995e-05,-1.840989565724884212e-06,4.886400828496308666e-05,4.765326054610688516e-05,4.072424402276547331e-05,3.593915998145743267e-05,4.314134074624636968e-05,3.529325033648368881e-05,4.269025689176277158e-05,1.003443107886377723e-04,-9.293960611695346104e-06,-4.995810926014644058e-05,-9.246534021165895092e-05,9.224677079644088608e-05,9.435340375131407559e-05,-8.446540790404953884e-05,4.713171615247130255e-05,-8.679483809376291022e-05,1.873919840568962945e-04,-9.200957754878030478e-05,5.931280911937406459e-06,-6.432903781385049229e-06,-1.791205160777683354e-04,1.207577098370816066e-04,-1.198921710007040312e-04,-2.077060646432388197e-07,1.072001379125018771e-05,-7.349757329333106578e-05,1.174323206808846278e-05,-2.300280997574490670e-05,2.279844151773024812e-05,-4.904198981416085790e-05,3.886358107790607191e-05,2.757127763073061435e-05,9.929198826089491071e-06,-9.702590332728228261e-06,8.069183213914653361e-05,7.683501770518542712e-05,4.649006891011933412e-05,-5.200995405118336777e-05,7.670654159687897836e-05,1.482158148947766028e-05,2.488078609037996629e-05,9.884137420832261108e-05,-4.291629009621954828e-05,4.661598175291492563e-05,5.302009299206865112e-06,-4.012734264265803175e-05,1.167378734840672425e-05,6.570612736605740902e-05,-3.338198786792643554e-05,4.846184278233778773e-07,2.679947575499470102e-05,3.103434170153312834e-06,-8.191055719759669004e-05,2.848811400434303015e-05,1.682062648756674423e-04,1.667146280614797193e-05,-2.576706788824192250e-05,-1.068834318907936631e-04,5.400029072358685813e-05,-5.391194750529549538e-05,-3.925905869096685231e-05,-8.323978348530986730e-05,-4.536005093341830322e-05,-2.663746338736296186e-05,-6.179853929553159235e-05,-4.270644727692578404e-05,1.603178173326374870e-04,2.842437052654517342e-05,4.542175278680990225e-05,-6.724513659498059025e-05
7.990681388460192907e-05,-1.695168161324735813e-05,-1.051380800580117153e-04,6.369686187201983299e-05,-3.568762360502906622e-06,-2.866917604928436562e-05,8.177018816362918003e-05,3.599899964845833375e-05,1.003835846115930263e-04,-5.991574207640601191e-05,-7.593966527681141575e-05,-1.520890594610596758e-05,-7.119914375725820710e-05,8.103931785403065740e-06,2.498012733153544008e-05,3.023576749072366161e-05,7.444446220653353556e-06,1.082588249090801096e-04,1.930864511261214927e-06,-5.514357478243576228e-05,6.886491539750421343e-05,-1.878731460649335131e-05,5.211804946869836853e-05,5.053554604753702050e-06,-2.260008978827572580e-05,6.750212414969011311e-05,7.063227462906395337e-05,2.212444664980289026e-06,7.918620299765636054e-05,3.136279229244964004e-05,-1.521558744727040293e-04,-1.321393047438989014e-04,1.889100739840254478e-05,3.585198841710552736e-05,1.357645077526198962e-06,-3.180959534256411946e-05,-1.529848813969743380e-04,1.896631649868071244e-05,-2.608378998145474066e-05,2.376521088336490910e-05,-1.159064441918764346e-04,2.516437162914077549e-05,-9.943256481135184246e-05,-2.081647043814504868e-05,2.332340192981946104e-05,-3.908614057074171079e-05,-9.951984969728113004e-05,-1.013881782695002078e-04,-3.260184165860134284e-05,2.258776062726139730e-05,2.742979985467685391e-05,-3.697732731386766189e-05,-6.057999756367008008e-05,7.290173244223732598e-05,1.401060793420272414e-05,-1.792965293424972500e-05,-7.213261386645364759e-05,5.041637285969601938e-05,9.537084855150117636e-05,-5.791025581918389688e-05,-2.276591852367199398e-06,-4.465684286338577954e-06,1.268577873140233517e-04,-7.044145185889801268e-06,-4.678046963153930765e-05,5.095291890185008093e-05,8.008153814748503749e-05,1.335016569836601604e-05,-1.147498547705857281e-04,1.492606047472754846e-05,9.238960532085401455e-05,3.850763485212424216e-05,-1.279937981544903550e-04,-5.661374344201087631e-05,1.299252246370720768e-05,6.168000725317266406e-05,-8.503372190412695521e-05,2.757775439860990312e-05,-5.186270282727212884e-05,-4.460603074306655958e-05,-4.919691442367455353e-06,-4.249406822011807532e-05,-5.434557099849155381e-05,-7.136906271033342732e-05,4.189587999692865694e-05,1.195985489679916728e-04,6.993341164159984466e-05,8.353128677661410359e-05,1.501138545131722890e-05,1.589044352576860625e-04,5.085553316332352898e-05,2.475253634896642976e-05,-1.359801506469613048e-04,-1.889281201275088765e-05,-4.159830180587825965e-05,1.210265093530184791e-04,1.000022399854360331e-04,-6.789549972406663792e-05,1.737315134813041689e-05,4.912515520912335323e-06
-1.950965439840327226e-04,5.350698090483689448e-05,1.108423913667649068e-05,6.932925658593768001e-04,3.242336501175384139e-04,3.881241425904458927e-05,5.636453832105678668e-04,4.304816697777483193e-04,-2.680109594130853718e-05,-2.517081825159881185e-04,2.698681325975195921e-04,-1.422796777106680047e-04,-1.422536306524235344e-05,2.716940565386084078e-05,-6.591117068152248203e-06,9.415768195532538869e-04,1.610741418281288410e-04,-1.083483997976195979e-05,-1.543243005912927981e-05,1.049381910447932924e-06,7.889478560809095242e-04,-1.878349951055001486e-04,-3.037188962591756214e-04,-1.845612044621869785e-04,7.479441776798278075e-05,7.296004142398443111e-04,-2.182051147143086652e-05,3.157334752794780535e-04,-8.164602530708043020e-05,-1.285220733543016806e-03,2.100724825770582062e-04,-8.418903569424277141e-05,1.136119827491905993e-04,1.789225173502026413e-04,-1.137659503541504058e-05,-4.595075700959673043e-05,9.588451409954966626e-05,-5.459711980002966574e-06,-3.044898735828182169e-05,-3.709176272440568921e-04,2.352222175084021030e-05,-3.691746812693187766e-05,-4.183713781195825567e-05,-6.611535512991984214e-05,-4.465814939054742980e-05,6.973672626441633417e-05,-6.460868165818553369e-05,1.401604387798698901e-06,7.951610552591072524e-04,1.944725683288516153e-05,4.704052311174217974e-05,-1.075894562529056304e-03,-5.180524395014229596e-05,-2.595535816359241976e-04,1.034928923151618552e-04,1.921873220981786901e-04,2.390955992478014239e-06,-1.114363922116616893e-04,8.704085557082828892e-05,3.581758484199468380e-05,3.860534398606206086e-05,1.066477676048779052e-05,-5.788078726407265958e-06,5.679218435272523195e-05,7.913587444871367896e-06,7.742166283234590057e-04,-4.069399278512955665e-04,-9.357507102484333942e-05,5.156816869188750373e-05,-4.817003666610807826e-05,1.371952206057190529e-04,-1.709044282223426382e-04,-4.866900462061469991e-05,7.669367761638186181e-04,3.431855185178083763e-05,-9.407638180110074330e-05,1.789591795638256061e-04,-4.892255503232134244e-05,4.000179426280094097e-04,5.883172749367653965e-05,1.133843563968802261e-04,-3.447467330288327787e-04,-2.795374219405638114e-05,3.567413841696426497e-04,-4.805642876972746427e-04,-1.152642185074056097e-04,3.069599817877356095e-05,3.090120006206141781e-06,4.245225914373174818e-05,-2.138166368704529411e-05,-3.992557384413588674e-05,-4.405427238403120008e-04,-1.055499610524889649e-03,-2.667752373405995456e-05,3.737851522060530861e-05,6.702999349632523141e-05,-7.100742229631302636e-04,-3.413232806917116118e-04,4.831795122144405433e-04,-2.699463814330298759e-04
-1.525752314240630273e-04,3.168377940660191584e-05,4.496612203705795216e-05,1.580693794771446774e-03,8.136792315771585859e-04,1.154830769155395117e-05,1.162469480432183361e-03,4.246418025498523824e-04,1.004323729209511486e-04,-2.806015220394625538e-04,8.683638522314695652e-04,-5.131550938593640223e-04,1.344077428875631406e-04,-1.725150327105490428e-05,-1.827222100799576513e-04,1.824529016394674328e-03,6.379626885565328103e-04,1.914540971808586026e-04,1.622651361852206584e-04,3.852774178488420793e-05,1.878734245849685187e-03,-3.975295766771866026e-05,-4.418718970884952160e-04,-2.627945462289054280e-04,4.427840244525873696e-05,1.622736123002777942e-03,-2.317373521946183254e-05,9.179818351139735306e-04,-1.772404328853398282e-04,-2.694086111083086790e-03,4.024765735600431289e-04,3.746515225225607165e-05,-9.230813873487356269e-05,5.811391199136809209e-04,1.854071371207395764e-04,1.185174501059802149e-04,-7.937716072765351296e-05,1.288712306523163856e-04,-1.061461221312169336e-04,-9.916907649887920801e-04,-4.289835061147088811e-05,6.825124161076528376e-05,2.369418604513534859e-04,-4.979305682315416927e-05,6.302490773079937904e-05,-2.786463906129460835e-05,7.208928508440136482e-05,-6.676620808578538244e-05,1.934702016965595761e-03,5.515010286398281636e-06,7.471130244090699131e-05,-2.738670068488946192e-03,-4.085137573224665214e-05,-1.177315597341199222e-04,1.107459939345957446e-04,6.047357434232147964e-05,-1.794254714862058013e-04,4.834238416955603595e-05,2.091970389094515033e-04,-2.794421628399195801e-04,-4.652512162149146193e-05,1.352931296668254070e-04,-1.071212131728322710e-05,6.721926830945674602e-05,1.175804025708852195e-04,1.887875539320769697e-03,-7.520010981672817837e-04,-1.925629117856249924e-04,-3.112107336054307263e-05,1.396164637126488081e-05,3.316566515320292256e-04,-4.522767175217277339e-04,3.211809297234144780e-05,1.889767489550624093e-03,-6.677641159948059899e-05,1.035893023675995596e-04,5.259723283940142234e-04,-1.409661725276535119e-05,8.083422683451191087e-04,-3.445777908742755246e-05,3.959110503390757062e-05,-5.275507964064194387e-04,-1.294545942590518090e-04,7.706196407171551693e-04,-9.659366732837276282e-04,2.188746873297796788e-05,2.343805772488280720e-04,2.071887387184027419e-04,1.743738506552542364e-04,-5.903549758161970583e-05,2.205855691501382089e-04,-7.215382448843277435e-04,-2.256791997504337555e-03,1.376420584279707588e-05,2.647303703622337959e-04,2.820789807989222274e-04,-1.392222528705534465e-03,-6.530557807981690003e-04,7.818909052307711303e-04,-3.295960293160433334e-04
7.951271156998932616e-05,8.234643921485282922e-05,-1.007995443944042288e-05,1.339544961368096873e-05,1.388074064228558878e-05,3.897017969819863755e-05,4.759738411543486021e-06,-1.824627956200979776e-04,5.229855445453415118e-05,-4.871800239385935198e-05,1.151564417165962495e-04,-1.388812140973945581e-04,-1.471064973590904465e-04,5.125171838138005241e-05,1.232399139619947130e-04,-9.591564598663854940e-05,9.218467965654523349e-05,2.222010441064572518e-04,-4.853370712982635766e-05,8.830381345084278855e-05,-6.056753435693334011e-05,-5.618258140778681543e-05,1.186893281613167798e-04,6.274241575035555964e-05,8.785897368483638328e-05,1.208343821836371025e-04,6.217269889597489524e-06,3.334966490493085275e-05,-9.034268320581674626e-05,-6.046910983818027871e-05,-1.132840329596038182e-04,-1.232965345463143644e-04,-3.201815683825452562e-05,-1.353272422104745778e-04,2.806740371826632694e-04,1.439221568980352222e-04,1.631679947075675128e-04,-2.355303903556956940e-05,-4.266027872313922221e-05,1.229129917814520065e-05,9.782468391779387525e-05,-9.447814879945494796e-05,3.074850915154693710e-05,6.942604952757711707e-05,1.465812274092802646e-05,1.819067414813849835e-06,-1.656729594258498516e-05,2.327206291317460022e-04,1.003890937884516319e-04,4.202885182841973639e-05,5.433309506591549705e-05,2.305984752491296925e-05,1.460366405779790418e-06,2.053725239988987131e-04,-1.827290676181747228e-04,6.660820195855771618e-05,-1.752263036896296563e-04,-4.693225711951529882e-05,-1.466906089823075815e-04,-9.278995703174438929e-05,-1.039645584111810337e-04,1.463285795976936097e-04,-1.072472541265908932e-05,6.879745207451193854e-05,1.075350512623009561e-04,3.107183164527098774e-05,5.609473753781796387e-05,9.996079573926728299e-05,-3.767713699793090860e-05,-1.609674324325015152e-05,1.565594719477566215e-05,-8.740825418828255145e-05,5.734252806172042980e-05,1.151340391581388075e-04,-1.052108091771092736e-04,3.628943224348958932e-04,-1.425822137196420962e-05,-2.053675324794921811e-05,1.728924992647177411e-04,6.175380449441496343e-05,1.359155920888993282e-04,1.147209785956841479e-05,9.599505021801764263e-05,-4.588859075016963978e-05,-1.574572328744620713e-04,-8.071768461214648015e-05,-1.388159530275543597e-05,1.544709653146629513e-04,1.754170358945065014e-04,-1.329166091824820052e-04,1.077341008524726902e-04,-3.355303309883272489e-05,1.425574204252872464e-04,-1.068449176417919622e-04,2.682674386153533321e-05,2.199845404199320847e-04,-3.442060997006679188e-05,-3.779660100610915416e-06,2.827377760579645429e-06,5.688580677869538767e-06
5.415552536857394088e-05,-5.764579679435955829e-05,3.811929385658791963e-05,-1.139259468993150722e-05,6.145354729394933240e-05,-3.159283797733799680e-05,-1.057676978523589944e-04,-1.389856607944788020e-05,-1.281027038479603576e-04,7.338270340877974646e-05,-1.237092913023823124e-04,-4.393686916227694842e-05,8.281372957469633261e-06,1.548284450312189912e-04,1.660636207267187966e-05,-2.685899494628836805e-05,3.786489261606359194e-05,-1.508194138477454412e-04,-1.813830770245419922e-05,-7.666220414544033118e-05,-8.891670683975271775e-05,-3.756677330293951112e-05,-4.966867160834355030e-05,4.029881262378746709e-05,1.030143911093221883e-04,-5.243240550174627669e-06,-3.017158759323804621e-05,-2.077962378627583941e-05,1.622622945386057168e-05,-1.611400822738883777e-04,2.801242671811641729e-05,-8.326742887029145381e-05,1.293308971401740091e-04,7.101212731102849026e-05,-1.057397963239172466e-04,-1.497182771887656120e-04,4.850624594924094656e-05,5.874124351666126338e-07,1.309245822379856438e-04,-4.239587401865330601e-05,3.016456164446905909e-05,-5.803581362884697699e-06,5.695775159044498824e-05,-3.523931442455118605e-06,2.913540239337679950e-05,-1.058419556252878507e-04,-4.982629258126733315e-05,-6.855883036096667546e-05,4.409273260059619196e-05,-4.125504413202457003e-05,1.581226174967227761e-05,-2.273668015374854232e-05,-1.842276724265524987e-05,-1.773520264437036505e-05,5.662056676083131727e-05,-8.143600414972111196e-06,6.806666092958406063e-05,5.386298908302985481e-05,-2.250677422165931499e-05,9.696468868152715865e-05,-1.839581001628346469e-05,-2.146304530817174248e-05,-6.565634897221241085e-05,-1.039474450059718770e-05,-2.584520795465565279e-05,5.623600725944366498e-05,8.795404705245149924e-05,4.048188233673196836e-06,-1.348185830438312688e-04,3.131687925827657563e-05,-4.897674260335664694e-06,4.582448215752272960e-05,-1.516043343068329266e-06,4.704565846197151293e-05,-8.076768638856753264e-05,3.758845798862830431e-05,2.477917652719058489e-05,9.723935134221059625e-05,-1.476262014880532308e-05,1.491381723072470779e-04,6.686377780564286405e-05,6.970144666856587911e-05,-7.344122957071022389e-05,2.356599715019942482e-06,2.250000643086626437e-05,1.092263702655580423e-04,-4.119362291651234090e-06,9.376308658911038335e-05,4.900508738426103040e-05,5.123780350134836685e-05,1.581219821681781941e-04,-8.072100676826496305e-06,-5.999386259086298177e-05,1.522679166711643603e-04,3.515452635647036816e-05,9.892106959122965359e-05,-1.723527643351057995e-05,3.295242922025040700e-06,-1.306615278512964059e-04,1.972626559380825530e-05
-8.681945294166266156e-05,-2.008013938862299652e-05,-3.042663868915370539e-05,1.058577392582023692e-04,8.213233864885824946e-06,-6.465178915422589538e-05,-1.563454308597743059e-05,-1.471670560573775939e-04,5.072066811739246749e-05,-8.717984314402182111e-06,-2.395245725309112428e-05,-1.315324022075569060e-04,3.856136343504526823e-05,8.144185626856293944e-05,3.711105203219183937e-05,-1.911818353179805480e-05,2.486110301450732276e-05,5.628261557171324442e-06,-7.834995773638534779e-05,6.627084717910468071e-06,8.671089110612409953e-05,-5.513460214227387216e-05,-1.021841010995847411e-04,-7.401153669048483928e-05,2.108353798999447712e-05,-1.509007466572370289e-06,-3.829738276983412834e-05,-6.601787815874906175e-05,-2.071182025911741270e-05,-2.420033631120847460e-05,8.228749903899985505e-05,1.282115135887197394e-05,-1.213400655468506082e-04,6.843089000392443410e-05,7.142106663708543645e-05,-5.130332293237592880e-05,9.107027610274728065e-05,-1.226977016482481910e-04,2.298835863954970277e-05,3.387115644356471504e-05,-1.415356260754855689e-04,2.102812091204969282e-05,-6.535200831237164510e-05,2.778777423370750732e-05,-7.180134302472818239e-05,6.654330351745985279e-05,3.672943618868434735e-05,4.747043303018686747e-05,8.394495924971149411e-06,-7.693884156003445577e-05,1.288665707458659833e-04,-2.248309931262431832e-05,-1.202172596859288896e-05,-3.463470314579558211e-06,2.249964372697855103e-05,-3.621274539406034334e-05,-1.841107663255723729e-05,-6.511425029357309924e-05,1.973662026842562336e-05,-1.357094784322719334e-04,-7.763085306465583460e-05,1.095614158260519941e-05,2.264435704265132282e-05,7.316775124818430628e-05,-4.754454432209840562e-05,-1.331679108218870226e-04,-1.168456050679293236e-04,-2.474787585171716036e-05,1.608648447229724213e-05,-8.220215805470323315e-05,1.498493932494015970e-04,7.405278026013116576e-05,-3.084531479901935820e-05,3.589088873311343912e-05,4.570926928008208422e-05,-1.272521077652661972e-05,2.703545428263510756e-05,-1.204892156028867178e-04,3.807561138014355719e-05,-1.991890329117354029e-05,-5.340595290225985317e-05,-7.779356170858862398e-05,7.464603967273085623e-05,-7.151994343828650940e-05,-7.601185233996729702e-05,2.009813184217841309e-05,-3.073562721048454810e-05,-8.190383799233631764e-06,-9.238453542625456381e-05,-3.973542969011921802e-05,-6.976470193670371322e-05,4.645648619982869240e-05,1.900198394116559453e-04,3.429597008146203460e-05,1.212273699542662470e-04,-2.228260094577004893e-05,-4.139351111072662640e-05,-1.225764427140387685e-04,-4.092591886280086183e-05,-4.202660855710357488e-05
1.594651231937066588e-05,9.082815159599611030e-05,1.421871761961091953e-05,-1.939808861390304970e-05,8.929250294065181072e-05,-4.486529093646267720e-05,-1.969980755499302154e-06,3.890229393834930202e-05,-1.745847132417081813e-05,1.904070159733143070e-05,2.302078659437624628e-05,-1.232452953490431111e-05,-9.801706782689430881e-05,5.259145868994597562e-05,-6.355230483047991325e-05,4.262187060755720107e-05,-8.266141661481525116e-05,-2.229528020210309639e-05,6.846823838717821143e-05,-9.328941786079659039e-05,-8.360719822465217477e-05,-7.368617901670590400e-05,-3.371293321801586279e-05,7.957083802724189197e-05,-1.329403548818357077e-05,4.898454545679755833e-05,-1.099668224479169101e-04,3.015102056696268692e-05,-4.007537358827867845e-05,5.786415127191579745e-05,-7.014021034307545252e-05,4.639168813481424385e-05,2.455468364690643611e-06,1.464054560197245945e-05,2.290738852551260404e-05,1.653369106104165566e-05,7.384098859883758121e-06,-1.003828758059264475e-05,-9.985934324702756945e-06,5.090640728379574302e-05,4.802251943814431423e-05,-4.085678385376586820e-05,-9.251979450344507581e-05,6.131570445320772694e-05,6.397212801922465980e-05,-1.101289970657165572e-04,1.044120455684687465e-04,-1.904734450111486625e-05,-5.345271353412679239e-05,5.930360667125026031e-06,-5.924580562679699638e-05,5.680419706926093456e-05,-1.231709016929408349e-05,4.592813464817800169e-05,4.221694755363260043e-05,1.536803985881280853e-04,7.474093757440977140e-05,-3.077695498833010572e-05,1.431566191447643202e-05,7.768876102595890414e-05,-1.058991539784050559e-04,2.589843169788680387e-05,-8.346189359430931259e-06,7.059630936880425568e-05,-4.253563738562915849e-05,-9.145119133423221963e-05,5.662181498268600442e-05,8.425493290255838235e-05,7.987007679583728716e-05,-3.916402863161669670e-05,1.663491969024662108e-05,-7.377843672611331897e-05,-7.739636145772821337e-07,-1.180465579515073985e-04,2.583226453307084581e-05,-6.143487354452897039e-05,-8.111994373823542084e-05,-3.730653834280469965e-05,3.813543776173643337e-05,-3.309087933855809439e-05,3.024513267176883735e-05,-2.869824569697864377e-05,1.261194324542272709e-04,7.439243498942310487e-05,1.155599416662527146e-04,1.421660906353671387e-05,3.381088266129987489e-05,3.143283521099740884e-05,1.152370637044594268e-04,5.735838427322634628e-05,1.622442738606921494e-06,1.007372624194267322e-04,1.410881882389882616e-05,2.399275173335174737e-07,-2.795979541479300245e-05,1.942094496893157903e-05,4.555695280867009297e-05,4.384568872277709654e-05,2.908547559030160408e-05,-1.042738693027989708e-04
6.591610228865878206e-05,-9.979112878463255247e-06,3.920259419360915488e-06,6.052898920663612618e-05,-9.686798750556978104e-05,-5.578183017171799043e-05,-1.111250335046782094e-05,-4.673505644282350424e-05,2.297288879149405949e-05,1.713423699982135457e-05,-4.221488570892929413e-05,1.077630898566495375e-04,-1.160980496687927591e-05,3.103551350975621172e-05,2.428989100576889885e-05,9.467185181051493775e-06,4.959191913488700915e-05,-7.007417979792270534e-05,-2.861555979742018324e-05,-5.623880599758051890e-05,6.018551386975063235e-05,-7.505641215454518771e-05,7.205823997058629650e-05,9.531090186780722165e-05,5.481882158093364559e-05,-1.432370749994281539e-05,-4.038892672768242708e-05,1.907985091531636595e-05,-4.562623446574448128e-05,7.101211233644157150e-05,6.065601258745989316e-05,-2.566948093492752407e-05,-8.107822479347011210e-06,9.411784047261191079e-05,7.210706578395938127e-05,6.939279491617055570e-05,4.497456401376348869e-05,-2.058084551453961768e-04,-9.696900049995696476e-06,9.674223007357332811e-05,-8.830308092370558722e-05,-1.867071156347385939e-05,2.358505310121958033e-05,1.114863974428507889e-04,7.891039409021235584e-05,-2.291971896464294617e-05,-9.369837602598100597e-05,-3.545515714173990622e-05,7.356464818944898987e-05,-4.435581438703711736e-06,-4.626438002705813787e-05,-3.229801209626177852e-05,2.246298221832456396e-05,-5.347489848231980452e-05,7.902150809393190245e-06,-6.686143121235764615e-05,5.813896826440977025e-05,-3.152990932870854585e-05,3.834366345538747295e-05,1.001485199779895573e-04,-5.248838921308258336e-05,5.093474229182183772e-05,1.826915391962332451e-05,-1.133316988483980313e-04,3.715779435629957997e-05,-7.780677755637946532e-05,6.836682892982536344e-05,-6.767703740991819032e-05,-6.753729101994344159e-05,1.824259820629903323e-05,9.193535925300079471e-05,-6.003094474611003734e-05,-5.324723825994982871e-06,9.133321162570238268e-05,1.441483234925891676e-05,-1.248604784871352393e-05,-4.325054844887812406e-05,-5.382662594586990726e-05,-1.301384275864941994e-04,-6.916521474313685298e-05,-1.841784968103620323e-05,-4.121305989678893789e-06,4.659087844355381175e-05,-4.742128801288845330e-05,8.295304868273444226e-05,-4.192265005748819984e-06,-4.625942808098054720e-05,-5.492647553789142226e-05,8.168970436336519712e-05,5.981134121158128138e-05,1.008797892095032310e-05,-4.264353873075306031e-05,-6.064055436747655455e-05,-7.231437445919679013e-05,-8.625308963651532148e-05,9.372798576729155808e-06,-5.421643132097258774e-05,1.014479505288627117e-04,-9.787487826420919370e-05,4.212193736648069890e-05
1.696169790767962439e-05,2.166158675831065514e-05,-4.115798983947821759e-05,6.286663961250401060e-05,6.647503902165907768e-06,-1.241739840736815837e-04,-2.677390038538623985e-05,-3.347824975290501656e-05,-4.704308361471126829e-05,-1.092802888926346652e-04,1.537911031011594376e-05,2.331861220220038833e-05,1.630905595430815857e-05,-1.539697924346667568e-05,-1.226021376211385277e-04,1.942357065846004045e-06,-4.320613280920696349e-05,-4.492647824098548547e-05,3.678136775962682762e-05,-1.200058191376867446e-04,4.267652154720429157e-05,-2.544354185864706330e-05,-6.772259369625841981e-06,2.783232830898384072e-05,-7.764141914086539111e-05,-4.769495318547915957e-06,2.890647369353673460e-05,4.637828822872242630e-05,1.554188480650690936e-06,1.009574686298959049e-04,-6.182508052237445189e-05,6.100532156852787820e-05,2.664034841205404873e-05,-1.342488431744132170e-04,-3.949325535882026013e-05,4.823876174530528267e-05,-8.351946803574268770e-05,8.628271826827147784e-05,-1.836596288863416007e-04,2.415683010026729906e-05,-1.149677658673218985e-04,-1.434101018256103088e-05,-4.813412648906205312e-05,-2.410638393139735117e-05,-6.089208982621821123e-06,3.063533536278157228e-05,-2.626218231308599798e-05,-1.911357603468707368e-05,1.543780645112487174e-06,-6.565065792079515178e-05,3.311518281534610379e-05,8.772083092594906641e-05,-9.483096682534159990e-05,-2.581894026742158682e-05,-4.308101639774946723e-05,1.035306972607257398e-04,5.245360957422951010e-06,1.709163096009727628e-05,5.033204307696184340e-05,-5.568887023405189257e-05,-1.052003014635803485e-05,-7.766390538468283928e-05,3.449944559846189978e-05,-3.331074254682457662e-05,-4.293455923392303759e-05,3.826148283947478106e-05,7.397602552584257976e-06,-1.294047220175641004e-04,-8.826031975121164503e-05,4.271405651119978392e-05,-3.060883892710655101e-05,3.831788048142613059e-05,-1.898766803481912935e-05,-6.216675096858997496e-07,-1.075592436935552387e-05,-2.825873962261111152e-05,-1.433944201576482867e-04,-3.270557752957274845e-06,2.599945866736205232e-05,-2.005788268936065821e-05,2.926576351022709314e-05,-6.182972181519200236e-05,-4.907076635594976318e-06,1.349441573738097448e-04,-1.907453436895529162e-05,-1.980597693956978982e-05,-3.530376598624575637e-05,7.264272590999209644e-05,5.162569087914728873e-05,-8.659249500493396124e-05,1.712114367714830806e-05,-7.014064912817876980e-05,1.429874498373737493e-04,1.032640470101656095e-04,5.734206438528564420e-05,3.663907517411516890e-05,5.869323443260688076e-05,3.871878023085681517e-05,-9.723294812267277312e-05,-2.275344022631572193e-05
5.543560741225981989e-05,1.568824453382497636e-04,-4.202071480629636709e-06,1.863603851232809472e-05,2.232131586512365359e-05,-1.206350723201811610e-04,7.434117913644530001e-05,1.182964436184326856e-04,-1.084737492402970997e-04,-4.970474231372039726e-05,2.653316005871005510e-05,3.105086175030217545e-05,-8.843391529067301830e-05,6.143279659734225229e-05,-4.871017093910155044e-05,-8.578701028014099333e-05,-4.416529546458780202e-05,-1.184639463749119698e-04,6.397792231888004368e-05,6.374508619805590237e-05,-1.957896381903678602e-05,7.534849707533213263e-05,-5.053054375207832895e-05,-5.116191326659098014e-05,-1.121284422718141503e-05,7.372957233513663887e-05,2.774923374254775589e-05,1.222661373681435508e-05,2.234771918305987438e-05,9.156512842553878018e-05,-7.021342072667547676e-05,4.544892014902003028e-05,-2.078644682667821417e-05,3.488678701790272292e-05,2.154035748826270600e-06,-7.508646297642266741e-05,2.117538491248654425e-05,-2.380188638411477939e-05,3.108257139146583130e-05,1.168541746788503532e-04,5.592049953954994322e-05,1.048757690046605700e-04,8.432356955575638429e-05,8.344903113488382190e-05,2.217256001482965195e-05,-1.037699388673301822e-04,-7.148121660987771472e-05,-7.520115276576921914e-05,-3.146438842808371966e-05,2.999235958978553330e-05,-5.865082707658752457e-05,4.373705257683466202e-05,-8.315721940752130261e-05,2.384749387787308734e-05,6.722255817744209375e-05,-2.759210802118501046e-05,-2.064428923777539735e-05,-1.679177994168113379e-05,-1.181342474150332082e-04,3.878653271392083827e-05,5.496922333320121130e-06,-6.519806021472356939e-05,1.225800968707174297e-04,2.217847603063545259e-05,-7.184648214830094220e-05,-9.944579028857177384e-05,-1.040445831113506125e-05,-4.877138988892819484e-05,6.189238107615027305e-05,4.541409790574888616e-05,-4.319235064576184560e-05,2.413649258651071858e-05,-7.959548815414534714e-05,-2.298403765176521208e-05,-1.139775299505818716e-05,2.577402672192289650e-05,3.147360408252613607e-05,4.037754941180235181e-05,4.231121865637736229e-05,-6.902075283415967644e-05,1.046358018026615139e-04,-9.747716941836330910e-06,-9.609484457694114439e-05,3.162089752616652547e-05,9.150791075435358289e-05,-7.807193261568872822e-06,-8.373574502468342272e-05,-6.145601087315291221e-05,-1.750943679935929761e-05,-9.794441162314272567e-05,1.171149704321896342e-04,-5.171435512871052996e-05,-2.791005337627908644e-05,-1.286284534985424998e-04,-3.968421478534092911e-05,8.006345984570607821e-05,-3.152379087168638051e-06,3.060885140923945743e-06,-3.396194912250736949e-05,-8.001026367729842132e-05
1.100699074936377239e-04,-5.324828056365689063e-06,4.829079103500991533e-05,-1.052364149632985421e-05,-2.495271483859579515e-05,2.614164738629296613e-05,9.093883638745100601e-06,-7.060103771016174544e-05,1.806989358444963559e-05,-9.965689839296614915e-05,-4.491094459949117773e-05,7.740764453778196464e-05,-3.108176406039608441e-05,-2.603529081555427954e-05,3.263821425814550180e-06,-4.272079469111430335e-05,6.029908073501223556e-05,-1.026358308748491022e-04,3.895546346071610282e-05,5.141024801113080827e-05,1.325936217433468120e-05,-7.158016191770191858e-05,4.058938005127026732e-05,-1.466385664999876950e-04,1.338820377081241563e-04,-4.684820249990298083e-06,-1.023681797217767739e-04,3.622883895997542437e-05,-5.060969079626024430e-05,2.402278848777488697e-05,-3.973688847272569582e-05,-7.870476442892404773e-05,5.963742972238418718e-05,9.728957641467920819e-05,2.911428793040619139e-05,1.820710996375528187e-05,6.070235802595757050e-05,6.554281988614927841e-05,-5.415911838718642801e-05,-1.369911651389993346e-04,1.492852982512748637e-07,-4.857731289784974642e-05,-3.932191523682281731e-05,1.288797169470570986e-04,3.926048176065751729e-05,-4.820262237702346375e-05,4.461154896002605415e-05,-1.291067180288387369e-06,7.299569195620047302e-06,8.135273803146955945e-05,1.059739763556075381e-04,-3.657409866714781543e-05,-6.630065429123441787e-05,9.744553918188697691e-05,4.077369941481516458e-05,-3.160640645219829593e-05,7.743346908987251156e-06,1.975854081271568189e-05,4.166989043062072691e-05,1.724588666626095353e-06,1.020956489419081997e-05,-7.445461675760019061e-06,1.219300715276735070e-04,1.744588209934113050e-04,6.802864759267099597e-05,1.590577481358671863e-04,-2.525845865069492214e-05,-5.951881002127561512e-05,-1.350108272899992348e-05,1.299225712964822694e-04,3.883184822265900985e-05,6.113769137876677215e-05,-2.502057025547991953e-05,-8.425456338123383246e-05,-3.977586536685954842e-05,4.976924947844675525e-05,7.095890427722471043e-06,2.386707977123375837e-06,-1.223640865248033771e-04,-1.276706980453998463e-05,-1.132335608576903600e-04,-1.127840959640332825e-05,2.490205363443203946e-05,-1.515993402257856063e-06,-7.339746140474994355e-06,1.863142153597482218e-05,1.264942089376939544e-05,-4.161813936416001868e-06,-8.573370329561575591e-05,-5.998251734607810959e-05,4.632586460002077018e-05,7.882114068600167662e-05,-8.741244915363466405e-05,-4.548396558341807726e-05,6.496520621568769964e-05,1.022186166503385726e-05,7.449050396683892306e-05,1.036581167986424834e-04,-8.071634905285183950e-05,4.273355176166370801e-05
-7.802108720699207922e-05,-5.418244904666614744e-05,-4.886113143121598645e-05,4.469058522577066319e-05,4.489345547435004798e-05,6.698216516980405263e-05,2.585690619619923037e-05,-3.005716952579522700e-05,-7.791540798300606742e-06,1.097712655538268155e-04,-1.878190056764440885e-05,-2.302433200676196055e-06,-2.070850065058011809e-05,1.232475961018394332e-05,3.602610475090802460e-05,-6.684313441122647628e-05,1.609759655846742523e-04,1.555103621418123310e-07,-9.970013513942071527e-05,6.806863357119795994e-05,-9.557456204938297704e-05,1.785741309896947260e-05,-9.789007860777142829e-05,-1.255988018484215226e-05,6.124601322474801390e-05,-8.193461884148906487e-06,8.389290179670195861e-05,1.887211925271234801e-05,2.988920245096369252e-05,-1.231252424842197942e-04,-1.755454535129560443e-05,-2.948117934032234508e-05,-3.536121968449005702e-05,-9.803592092782348073e-05,-1.850748001922637113e-05,-1.051783051141301842e-04,6.509471613532096293e-05,3.140683900471202963e-05,-7.405128438031340554e-05,-9.606493035593438915e-05,-4.759996234397334531e-05,-1.366614153669506953e-05,-1.190439159939247994e-04,-3.936300414611001210e-05,-1.510992149504930581e-04,6.857779936850878170e-05,1.080941041051137563e-04,4.487499429818732057e-05,-3.042790675053984862e-05,-3.719448659681589040e-05,8.797335990960704702e-05,4.979592839581877271e-05,-1.051725309795307521e-05,-5.564996284620965175e-05,5.065854771411955072e-05,3.587830435902542058e-05,5.315139111351564500e-05,5.205280395264595396e-05,-1.067251083394501419e-04,-2.439260257097988820e-05,-7.538277855378229144e-06,-2.932492891312828099e-05,9.515392521523939877e-05,-6.725905540328159995e-05,2.289013181196209465e-05,7.776870559735909658e-05,2.585999719494217459e-05,-7.478727711947088532e-05,-1.559184924951299172e-05,-4.029766922504968195e-05,-1.124201913968807368e-04,-9.042881820733548461e-05,-1.663113466105252891e-05,4.532945853289400620e-05,9.778313528555522820e-05,1.893631067469126088e-05,4.070211056893375357e-05,1.089427354402708315e-04,4.099810560458778085e-05,-8.260817189719918876e-06,9.862909072205127076e-05,-3.305106574046140684e-05,-3.679666293608962097e-05,-6.994678690886098652e-05,-6.085298909702913000e-06,-7.655686806195362076e-05,-2.338267458676327463e-05,6.468890394063008605e-05,-2.790303320264511498e-05,6.781497640417826563e-05,-3.124487516635825292e-08,-9.339465712420951904e-05,-7.687112084505164707e-05,1.823816341277359517e-05,2.300292000141781049e-06,2.627901381447565962e-05,2.376356212388851017e-06,4.416417939301151951e-05,9.995956540928805669e-05,2.195690413665375736e-05
2.854558387773472716e-05,8.621568821553883869e-05,-1.089434397292141316e-04,5.672572494785020728e-05,1.163517245646702368e-04,4.546503862206756760e-06,6.814090043626070444e-05,-1.900501441296641885e-04,2.713738779899613657e-05,2.268196106663333825e-05,2.315307408889460942e-05,5.674062831271856045e-05,-8.578734213054838985e-05,-1.165143185364875814e-04,5.498963240943621821e-05,4.560404428597426699e-05,7.446915905757407251e-05,2.279011331984262187e-05,8.600984235343690385e-06,4.966677066629922489e-05,2.500439067281851746e-05,-6.760295720620317913e-09,-1.154700356229400809e-04,-2.605005448061000845e-05,5.698932447337514258e-05,-3.668982693016119447e-05,-1.365009387678960008e-05,6.934225465199956163e-05,-1.216430597270595178e-05,-3.190266934210927264e-05,8.169308869073648241e-05,5.717868118031995501e-05,-8.250517208812059241e-05,-1.055005144423786867e-04,5.282814823232347975e-05,-9.571945824181315017e-06,-5.178910296824263765e-05,7.487163813735517663e-06,3.660526687344165274e-05,1.793311245226061694e-05,-7.201087569207416177e-05,1.123647127124301128e-04,-5.947858382370828590e-05,1.750185622077555532e-05,-6.014004271789014864e-06,-1.132445821018323989e-05,-2.625255808271127495e-05,-1.196440262466688008e-04,2.108295303632893073e-05,-1.464733892935354351e-05,4.210627097477286622e-05,-5.401386534551953067e-05,-5.081701759279293645e-05,-1.818695918745713569e-04,-6.843134435699858690e-05,8.105503702444941989e-06,8.463151387392002945e-05,-6.572852466557708028e-06,2.582933507363768265e-05,-2.785740395386797978e-05,-1.178388828720079967e-05,1.530216670009125479e-05,1.109609770195025278e-04,-8.888299496811642177e-05,8.767803850399167166e-06,1.034066312524687189e-04,5.374380585161532672e-05,-9.579135204250757029e-06,1.702657268271643017e-04,-9.227429767305474846e-05,4.157573492849978540e-05,5.138186457401873610e-05,-1.214927913586281852e-04,3.986702948618405271e-05,8.363790221606768842e-08,-3.809108267356073790e-05,4.685360980564644929e-05,-6.530607367688403934e-06,7.436625964244237880e-05,4.044453847141464119e-05,-2.501190966625194687e-05,-1.402322872052467085e-04,-6.680523603185397508e-07,-8.030764598398147788e-05,9.747198915811851452e-06,-1.388228273976219130e-04,-5.896799220753730901e-05,2.702978084188166073e-05,-1.273982499180481456e-04,-7.557200017209183380e-05,3.925396799030604644e-05,1.080603431172925320e-04,-3.115577046658819593e-05,-6.398094098605812375e-05,-9.087279783982302335e-05,3.298626276045954166e-05,-4.042491889544439274e-05,1.014820733561996158e-04,3.917444707952584727e-05,4.109596746246024042e-05
-2.770651812860297510e-05,1.518452851083584653e-05,6.709106440820081718e-05,-5.526750673018685493e-05,5.583904666434460779e-05,5.652302204512221854e-05,1.162297826680152110e-05,-2.425706431278027865e-05,-2.499167712692556664e-05,-2.732461062407558295e-05,5.518140138544713616e-05,-7.732672788478460601e-06,1.713704437460638816e-05,-8.781774152186477454e-05,-7.769988072225343027e-05,-8.655889139128877851e-06,5.843623491176500181e-05,5.955475637251027803e-05,1.732000618908443191e-05,-1.631766420990461651e-05,-1.200210248444054686e-05,-2.683388059333372788e-07,2.546489413963843747e-05,6.614089532764802623e-05,1.285465219075558542e-04,-1.196851305936790628e-04,1.173551234331251343e-04,1.636061679039307477e-05,-2.484661818987301067e-06,1.663132925104318562e-04,5.550967136782016995e-05,1.215808999484222598e-04,2.041710216019370367e-05,6.039002883368944691e-05,8.261053091604225968e-05,3.937778939735649554e-05,-1.906126417208070512e-04,3.942235726650478790e-05,9.323362138734165346e-05,1.337827248637463249e-04,5.393390220764538454e-05,8.283964708438486528e-05,9.742019908676171020e-05,4.110891031046091541e-05,4.279632770241847283e-05,-7.324755810309974407e-05,-7.584218972721089433e-05,2.907245867602266186e-05,3.387282072902859969e-05,-4.006069390297002224e-05,-4.959712815078921503e-05,5.250906767369188113e-05,1.618369989978903794e-04,1.824931116678584614e-04,-1.799189940576869756e-05,-1.648285317039632284e-05,5.365812440375458453e-05,2.725193877137026187e-05,4.374847239804547435e-05,4.022158848267504540e-05,-1.711150897631702488e-05,3.078852480465009254e-05,1.220003096341075764e-04,-2.433315496194977869e-05,-4.667514920134060953e-05,1.361950373309808965e-04,-7.923206389969041265e-06,3.640723468302375237e-05,-2.632307085895290992e-05,-6.738500755659129098e-05,-9.005044137194164692e-05,2.821575506277567376e-05,5.156241921699110961e-05,-5.557003022269360356e-06,3.643880619373198376e-05,4.247757382010273493e-05,7.648574364775505264e-05,-1.357937293971090686e-06,4.954675096022522065e-05,4.824887309656014081e-05,4.872423856912497524e-05,2.274479912961137570e-05,-8.336602950189752161e-05,-4.954592567217317779e-05,-1.131303077197217972e-04,-1.280956718484417610e-04,-1.126035154146803424e-04,-1.516612643309360291e-04,-1.309912947814222605e-04,-1.230082523657515588e-04,5.897853294948661740e-06,-9.433940746696687100e-05,-1.148228888625456393e-04,1.899343411320794542e-05,5.834657587123250202e-05,6.206681173236499823e-05,2.002614698690350503e-05,6.774418726841557143e-05,2.997767494148017512e-05,-2.974824588951911427e-05
-9.696214679011784607e-05,9.178085834812989337e-06,-6.908971761666219487e-05,-1.628263989465345696e-05,-8.633642291930616474e-05,5.048405554042712239e-05,-7.685809672219694449e-05,-1.076967256963079440e-04,1.348345840650845356e-04,7.302716930930288263e-05,1.727434556587860011e-05,-1.243365651912176496e-04,-1.551016797357282205e-06,-1.064410757251561968e-05,-8.766082755032053459e-06,-4.527777735446852887e-05,2.743449895564454061e-05,4.423587243830495519e-05,-6.472253597079997663e-05,-1.048754096554059664e-04,-5.697016663422729572e-05,6.688264562927576432e-05,1.949169999466993515e-05,9.009232597552173968e-05,2.643793097083796129e-05,-8.155595136854359734e-05,6.943060954413178023e-05,-6.209995577096548067e-05,5.172089551699687393e-05,5.991997392554636412e-05,5.805710927794565708e-05,-3.104821014384540447e-05,1.486075543485747093e-05,-4.041886126050793081e-05,4.428910791517405262e-05,1.586149253236365168e-05,1.121245780026980035e-05,1.028262033210479670e-04,-5.592682977601109870e-05,-5.758660135633080071e-05,2.377970500014501106e-05,1.364342796648650493e-05,-9.637224238857563971e-06,9.903774842475816982e-05,1.354081670815250835e-05,3.597743294906608852e-05,-4.356076778747423330e-05,-4.383325892796871164e-06,8.108216981875181434e-05,1.230118242194860835e-04,2.155186054438673013e-05,4.139925845255884845e-05,-1.494620122489647546e-05,3.965132574676738660e-05,9.134166075458745684e-05,8.377444983136273892e-06,5.562925481692520212e-05,3.538734628861651396e-05,9.481583131301676262e-05,-7.616757441036311029e-05,1.227706062323347775e-04,3.747718065665330657e-05,6.554171458384325743e-05,1.439999646279644079e-04,-5.211308960434323976e-05,4.772918264877867324e-05,-7.645502894071534239e-05,-1.764668359581755605e-05,-3.642546519064141717e-05,-2.363782625731443719e-05,-8.549677565385553960e-05,3.541153954708552078e-05,-8.133744118941602542e-05,-2.536069549104171211e-05,4.248585295561963827e-05,-4.260868271067076810e-05,3.882882080369527700e-05,1.451254876698445774e-05,-7.757083630565095593e-05,3.599081447159846762e-05,-4.387387987664496776e-06,-4.799196082736695084e-05,2.610727788957281582e-05,-7.722670232259093524e-05,-4.754636463705996200e-05,-6.614168143424172375e-07,3.353782431879401765e-05,-1.030470208875385973e-04,-4.490461739412947545e-05,1.521255478618062463e-05,7.153566847056354241e-05,8.886809182326060083e-05,1.090764370218320905e-04,1.370451425807227546e-04,-3.618551953639643424e-05,7.246732239139305070e-05,-9.198653909805196236e-05,4.851017717911184442e-05,-2.479270215470231377e-05,8.253996356256101594e-05
7.613998025291453579e-05,3.372261433785068481e-05,1.614439005898914655e-05,3.843713370748451510e-05,-7.471862627103334931e-05,9.717591713633376004e-05,5.054684091344057903e-05,4.298858018135370693e-05,-4.601349313668433452e-05,2.166613192306903555e-05,-3.702624557459001183e-06,-3.277087676776249740e-05,-9.060597558833574725e-05,1.856565583236810765e-05,4.934052067690390920e-06,-6.208066319258217884e-05,8.117608153501888616e-05,-1.914860081386246781e-05,3.750554107089638744e-05,1.099982421441419495e-04,2.878764017951179895e-05,-7.370877278008996646e-05,1.324637092770263893e-04,1.370624512847311250e-04,2.246603316605865614e-05,7.091606340936675674e-05,4.548102108157630442e-05,6.086031577941432579e-06,-1.737707709624752416e-05,-6.660977653408659753e-05,-3.750115875984883987e-05,-3.692123743521406914e-05,6.641041301703269335e-05,6.998822652810648883e-05,-9.724095840101041992e-05,-7.203749417906485852e-05,7.610864853254083174e-05,4.705296259440499906e-05,-3.425400603237052020e-05,-2.624774089210737748e-06,-3.155783131071678038e-05,1.769567814435706098e-05,-6.453634766091349243e-05,6.240628705773580221e-05,-6.050094397842109952e-05,-5.396191905946452619e-05,3.910493919647236747e-05,8.975496518564406330e-05,5.938719917253252402e-05,8.976370319689424247e-05,-6.230326254032769707e-05,-4.607889380409111894e-05,1.481586634170086521e-05,1.287852219539789534e-04,-6.932558542141475932e-05,5.087756091259709832e-05,3.632408863196513137e-06,-4.469201121436460474e-06,2.722927596633856645e-05,-9.531621999561858518e-05,-5.559765717280633612e-05,7.803481249477900195e-06,-2.983935707092109628e-05,8.826937780387472225e-07,-1.531814862254726747e-06,-2.642641155245742439e-05,-1.434607111499138578e-05,4.539036119300077178e-05,1.145689512616457496e-05,1.252152777400307520e-05,1.155795204281434097e-04,1.432195317112900811e-05,-1.545295315604058644e-05,9.438363958110104670e-05,-5.254113815323233752e-06,-5.138425791915834245e-05,-6.914275379739568783e-06,-1.269083207047559225e-04,-3.103412211546689617e-05,9.603270711945557806e-05,-6.956088051634835596e-05,7.897262477345468057e-05,-2.060809403987802352e-05,2.094635022358654094e-06,-8.549417738945397458e-05,6.799138532645292843e-06,-7.281132292501843602e-05,2.351338279867058636e-05,4.738495599051727723e-05,2.439460768153836693e-05,2.771550540663832523e-05,2.974470974928445876e-05,-2.839543051388586104e-05,1.656600773848738338e-06,7.484700925683581384e-05,2.820136342273573914e-05,5.313924198208571661e-06,-5.974276279652556120e-05,6.917754239330470018e-05,1.347404990923710833e-04
-8.846874143085214589e-05,5.250182448660555939e-05,1.940280271389991911e-05,-4.595544929209956041e-05,8.559991113727754241e-05,-3.637214877611917433e-05,5.859592448811201069e-05,-1.289017698180049874e-05,-2.175540593234933336e-05,-1.103397988090200921e-05,-3.337235842725642216e-07,-8.055544328349601400e-05,1.251014378395957363e-04,1.153678413946977927e-04,-9.642045942854414681e-05,9.202741346887406617e-05,-6.877048901479142283e-05,-1.158347118638473382e-05,-3.211350264498003654e-05,-8.212852106736121221e-05,3.454799565792890636e-05,-2.096091280128455615e-05,9.525396191329739155e-05,-7.810512135678568944e-05,-5.433743065115923578e-05,5.271085066364909478e-05,-4.432550264048558245e-05,1.252897313994793648e-05,8.574886937261437774e-05,-6.924926899928903584e-06,-1.813815384199466316e-05,-7.592140528208337247e-05,-9.706605788840065872e-06,2.486716762885112539e-05,5.682509119001602710e-05,2.250431157755071351e-06,6.558392891793357984e-05,1.884600770426483041e-05,2.587398397044871065e-05,-7.089042260968476256e-05,1.996903216829245883e-05,3.359685619438724087e-05,1.696197102826951309e-05,-7.169606846556967944e-05,-4.978101820865916602e-05,4.537349232625831422e-05,5.739697490575525635e-05,7.561517440602136340e-05,1.976661005294441656e-05,-1.110456136994255385e-04,-7.427823569838325137e-05,-8.172209039935664850e-05,4.217862676685763397e-05,-7.720277648544335042e-05,-1.606426770558231539e-05,-6.047283685164768431e-05,7.997004602311886395e-05,-3.801925488576794472e-05,-5.072081362367493256e-05,3.736314698810842654e-05,-1.633368066402201370e-05,-8.701301212224748941e-06,1.003844364481015125e-05,-5.554699815851070131e-06,-7.924741492495979665e-05,1.018748037578224079e-05,5.407512739202642517e-06,8.571012525914026335e-05,-7.446285136126428947e-05,9.282724146701999097e-06,5.340240264908760974e-05,1.365156440599203252e-05,1.641516220204583011e-04,1.598489010267741114e-05,-8.819957619753244316e-06,1.630382491452143131e-04,4.302864827227756992e-05,-5.783558774131703189e-05,-8.174491523970486069e-05,-1.658553093322411812e-04,-4.675814214838702336e-05,5.346680141883843653e-05,3.232109621554845886e-05,5.714243110174633801e-05,-6.851649218386799496e-05,-1.627060685754891156e-05,-1.481152014388326086e-05,-7.612012359034097406e-05,1.215166906633325896e-04,5.703991215019484068e-05,2.505915790445838068e-05,8.870873988175333592e-05,5.832304516908515084e-05,6.720927755628798431e-05,8.297019874368710289e-05,-2.043662213156627037e-05,-2.089606408231282840e-05,-8.330325493024183189e-05,3.351031590537886470e-05,3.620936918325036837e-05
6.083624290487516732e-05,1.693315690682572339e-05,6.956141230385576388e-05,5.819833825443710866e-05,3.574905514739750037e-06,-7.201103926544449507e-06,1.063247995272083559e-05,4.188414673788839505e-05,8.453655918960448397e-05,-2.937586285842039429e-05,4.399443512246505608e-05,2.735434843875576318e-05,6.660202494562607388e-05,-1.427029546738531206e-05,8.777653703711678400e-05,-1.291962783117445553e-05,1.729203152867194934e-05,3.759169713505213899e-05,4.279229279593606928e-05,-1.039851724037254321e-05,-4.731458532358611666e-05,-2.315243746967233230e-05,-4.269110175028542473e-05,-1.357506430948844938e-04,8.638750463655496699e-05,1.237140628693075806e-04,5.599910454564344055e-05,1.871237435826786160e-05,1.375241405872177773e-05,9.138688110672938921e-05,5.575641607876202007e-05,-1.175170313666062185e-04,-8.922502323084971227e-05,-1.816144793774883813e-05,-4.243373524307497176e-05,-1.131047451313826142e-04,9.024669875791936776e-05,-3.884204086158456117e-05,5.104279932288959226e-05,6.082739281805901759e-05,-3.180102746755739926e-05,-7.119373157241986542e-05,2.110565559140927928e-07,1.109186324835815922e-04,-6.348904389146880635e-06,2.816256378004482398e-05,-2.546410497085115111e-07,-6.769199528017724320e-05,-4.325475885438308894e-05,-8.939341616844909740e-05,-4.967456763911047893e-05,5.120459242952848895e-05,-1.253602212694220075e-04,-9.925660422542063291e-06,-7.350681245635571584e-05,4.686604296105551133e-05,-1.497268517394591096e-04,-7.787754667606084459e-06,-1.105904098108913410e-04,-9.683327102803363352e-05,-1.132189157394616354e-05,-6.849225956451885267e-05,-1.196260344869398842e-04,-4.904220374653899092e-05,-1.636525741927953321e-04,-7.861886772766576103e-05,8.029053421872121301e-05,-3.281642479896065492e-05,1.897467780072228165e-05,5.953330721566287627e-05,-3.207193134609981556e-05,-3.189792442631956041e-05,2.000540528468103146e-05,1.073997933986330533e-04,-5.872470562592107878e-05,-1.960590676094901375e-05,7.369373162861411124e-05,-3.572663389718653010e-07,-7.727269582672116762e-05,-8.150754552705113520e-05,-9.984729110047419170e-05,-7.108159495894026108e-05,1.189635118766923247e-04,-8.066437273210258702e-05,-2.068437307254219283e-05,-1.571881576323826786e-04,-5.626344086055016684e-05,-1.728901957500211456e-05,8.893980692707025753e-06,2.922109424026265127e-05,-7.715406876623020496e-06,3.000511520673157005e-05,-8.486751386467197714e-05,-7.081208726993026782e-05,-3.544299666161086385e-05,-2.584482528831679680e-05,-1.339367216349857048e-05,5.137629268972136097e-05,1.020583720835499970e-04,9.606090876079271699e-05
4.479139502573054933e-05,1.110114117418982242e-04,5.745345188330102174e-05,5.432285871136068468e-05,-7.841009708804309321e-05,3.311231747156301953e-05,-8.217569132065270646e-05,1.353614067617642930e-04,-8.553355248056978638e-06,1.418765491452072614e-04,9.050836836229952020e-05,-3.915167296696186550e-05,-4.625421361798393954e-05,-7.468327579483521471e-05,-6.182059561637378209e-05,-8.187752051803921942e-06,-4.309292517353789821e-05,-1.498650675456848953e-04,9.346679547803565168e-06,2.731717162324249964e-05,5.284072704424590201e-05,-9.404789842495996593e-06,-9.889695969494894030e-05,-7.221327332915905117e-05,-1.891148867796516822e-05,-2.432923612735016618e-05,-1.576902694410298612e-05,1.044879369165164742e-04,-4.607298735123938462e-05,1.265437869550793465e-04,3.232639499699016230e-05,4.564316540658724074e-05,-1.011465175321530615e-05,-1.672831455903022423e-04,-1.731101173618639620e-04,8.548935711857378835e-05,-1.879974330333683688e-05,1.139657761047925311e-05,3.187299742382692956e-06,-5.202492195557989555e-05,-3.394359273789791333e-06,1.030218299916556029e-05,3.842047745174304659e-05,-3.425120681014969179e-06,1.422716206305617477e-04,3.058835660114962295e-05,2.155643643314521311e-05,1.419271631299005738e-05,8.773371114335559652e-05,4.210077859198916011e-05,6.700784803957217687e-05,-1.685168684140303264e-05,1.721164122484689942e-04,-8.300862035497593781e-06,-2.647620614930703170e-05,-5.562497254708971079e-05,-7.122438615963321872e-06,-1.197022222188379693e-05,-2.523920110237123980e-05,7.074647281673964849e-05,1.788991234368097469e-05,1.266172140176305872e-04,7.184259293108481302e-05,1.086742560893134616e-04,-1.281492365624353230e-05,-6.101194932702604302e-05,5.533602363831338660e-05,-2.375053196579109032e-05,2.088776794691434647e-07,5.494240388329614640e-06,-2.039671468551437823e-05,4.735929663602327897e-05,5.031953066705023022e-05,7.212009971491570748e-05,6.734321522027610927e-07,8.278003200144950829e-05,-5.861194803145307602e-05,1.621249583847942969e-05,-1.240741609203252980e-05,-1.134433763167043652e-04,8.865791359793146647e-05,1.262610710178645385e-04,2.069100415808127432e-05,1.345692670969545715e-04,-3.462502756609310664e-05,-2.612423719820848003e-04,6.443798526618743660e-05,4.055111141856398939e-05,3.434066013896656174e-05,-3.401979471462849256e-06,-6.455010500612536029e-05,-6.160969248619979211e-06,-5.653262971000169596e-06,7.269929566728615568e-06,6.322615948461394171e-06,6.868761765159759366e-05,-1.847776918119462810e-05,-8.399298212823349467e-05,-3.729021343353857397e-05,5.942758380760153764e-05
-4.716171406335417258e-05,-4.114369149178124325e-05,6.451693485238740020e-05,-7.886673050673633281e-05,4.872181460137173384e-06,-3.151200144318796196e-05,-1.599371944594223842e-04,7.559525319436387400e-06,-7.228161084534883904e-05,1.826039292344739946e-04,-2.255028868331940490e-04,8.848503154810102259e-05,-6.801086786023190190e-05,-7.635780857295128440e-05,5.744828711498120702e-06,1.936862355433837361e-05,-3.779395117841071600e-05,-1.705915024527049310e-05,4.282283579967318212e-05,4.468652693715041317e-05,-5.619890250366479147e-05,4.875774033574071105e-05,7.568023637403723311e-06,-5.651579728023769660e-05,9.929554916715857313e-06,2.602062393001603914e-05,-4.505548768361443380e-05,5.679485225406292738e-05,6.888402028707815597e-05,-1.116597354540836599e-05,1.281499793629736761e-04,4.427845352570792002e-05,-3.516618993317915118e-05,5.407884091246571804e-05,-3.098546996919995892e-05,-4.582717350090738720e-05,-2.535399728216664096e-05,2.682351296954851212e-05,6.416130067417315198e-05,3.372854110446360390e-05,-8.062969151234988092e-05,-1.135606937874381885e-04,1.280219200835551615e-04,3.817648997249645611e-05,4.241184642045505115e-05,9.243142896269806834e-05,1.152115352892500307e-05,-1.410772867554825942e-05,3.259744928154643468e-05,2.557115590954106527e-05,1.057237558351312357e-04,3.078961353961197117e-05,5.968827625089832497e-05,-6.366961218299609863e-05,8.025356995228358963e-05,-3.815021300720612091e-06,-6.674505409850396850e-05,7.102621244424709736e-05,-5.252337896179433684e-05,-3.505816080298158915e-05,2.254882860137838305e-05,-1.273952367534870230e-04,5.826918663635972858e-05,-3.897356490361418964e-05,-3.023596379535412068e-05,7.917373281132870412e-06,3.300076266028770206e-05,-6.614512169939510669e-05,3.477505625413199999e-05,1.234362115113398328e-06,-6.243017002665827693e-05,-4.007441334382798083e-06,6.829818741122730004e-05,1.360257303723296151e-05,1.247132562960115237e-04,1.905508593609049975e-04,5.440450907866075335e-05,-9.792158919142318244e-06,1.988739849923661115e-05,5.594018227924009059e-06,1.194545030347634598e-04,-4.195871634126319025e-05,-8.419549933170526577e-06,-4.176542502935706421e-05,1.304327614900402279e-04,-5.096043122876896298e-06,-6.241049017063858957e-06,5.582464169797673054e-05,-8.403373361256494234e-05,3.367579272211847620e-05,-5.420786732382773922e-05,-2.107347952615449158e-05,-3.229571729111126789e-05,-4.784422757234949231e-05,1.014414928439846104e-04,2.004174888735492702e-05,5.103299745569539175e-07,3.589645301131741970e-05,9.579942938434245916e-06,1.541678578257569168e-05
-6.747595582726213369e-05,4.633828945992150898e-05,-5.072237386779165826e-05,-6.567541430538798117e-05,1.334816429293554977e-04,4.454301935529974914e-05,-9.426978537099679431e-05,-5.528332253569019194e-05,5.014000648303498596e-05,-3.453840347150589375e-05,-1.183286656237371410e-04,9.327905198214735908e-05,-2.461420102298588733e-05,-7.086435442964491237e-05,-2.566657332531841805e-05,-9.124615750240524256e-05,6.089064195288489443e-05,4.917448603805090525e-05,8.630283684225117686e-05,-1.192913215784769652e-05,2.811171932082324183e-05,6.727233850080025467e-05,6.982820191723133580e-06,3.298658732222193598e-05,2.864245728383640178e-05,-1.016551217599927150e-04,-7.113273878488494874e-05,5.414458535200429633e-06,1.510637486778363607e-04,-6.369822971653091184e-05,-6.652231800700954250e-06,-5.515376414108092194e-05,-1.988535674481189380e-06,4.802601046552397961e-05,1.075506906185122734e-04,5.913691777539780499e-05,1.004788739420840545e-05,8.295270873749318761e-05,1.103024356450254271e-04,1.300765142858222883e-05,6.430515686789312090e-05,-6.143730565987706271e-05,-1.402621898022466122e-04,-3.235492885808929621e-05,4.828655624870028193e-06,5.613599916385305163e-05,7.922950289400814403e-05,-1.012348771090950035e-04,-1.646498789750935177e-05,9.268216254242814375e-05,-7.020038793195040991e-05,-8.982337729917684306e-05,2.370234174953785849e-07,3.084000663798003127e-05,5.641106165626942425e-05,-2.233037050416034275e-05,-5.837057195082259172e-05,-4.588159596236642137e-05,3.656602370058241247e-05,-2.474680397738389427e-05,1.078345966507090618e-04,3.331877641760404600e-05,-1.550341663394894643e-05,-9.332355170295813986e-05,-1.048700631746015403e-04,6.230813372973184459e-06,5.080108198968235397e-05,6.010971884382862065e-06,1.493536064360304154e-05,1.031082767540110549e-04,-7.233371376365771606e-05,-1.417025448348376491e-05,1.283601845486525075e-05,4.157365463878705681e-05,2.059263256520703258e-04,-5.872773968769015633e-05,8.986049165414464619e-06,-6.979528425109873823e-05,8.227556715403611803e-05,4.695374640291292225e-05,3.514714171989779433e-05,5.184578709673150340e-05,1.913351575074166927e-05,-8.869352668047371149e-06,-1.128628643112394830e-05,1.089260804655517499e-04,2.109395013012819940e-05,-7.853284732451973837e-05,8.016602677333996513e-05,6.647326576864322971e-05,5.558669717594547988e-05,7.379364428717877353e-05,6.403358214240214273e-05,-1.127941324499616204e-04,3.404400041941029641e-05,-1.353438135860595201e-05,-3.978107975830994609e-05,-2.198861865752462348e-05,-8.439247765439443201e-05,1.213405773664638906e-05
8.365012895472694610e-06,-8.391865068016627412e-05,2.405557725771891974e-05,3.837538740109635481e-05,1.526715753279896110e-05,-7.776614682863113601e-05,-1.317233290043827813e-05,8.668878715516503176e-05,-1.299896785322304891e-04,2.972619848564373276e-05,-5.053434148107804137e-05,-6.787950279302926733e-06,9.094321154285382745e-08,2.329604186561380492e-05,-3.469174597127440673e-05,-5.590770295225805343e-05,1.992795842812945375e-05,5.824800065962999968e-05,-1.384338046883617755e-05,8.515465350048077170e-05,-8.714172784757626133e-05,5.288387388215075346e-05,2.703065486822271249e-05,1.969941534728217092e-05,-1.305210411392566633e-05,8.701086222869234318e-05,1.162870608715160523e-05,-5.078097207500569302e-05,7.356931229065703836e-05,-1.439623858838000672e-04,-1.521985910967023892e-05,-5.186991621642588976e-05,-2.431299084091559582e-05,-1.472385980304828841e-04,4.533992972423615028e-05,-5.010765014782806386e-05,-8.959200041215685252e-06,1.557564610064340947e-04,-3.274475193722608401e-05,-3.653818099785860241e-05,4.017067509543267097e-05,8.841508515578423174e-06,-2.980380490272950902e-05,-1.096839986934709663e-04,-1.103038160808389573e-05,-5.832959318266589977e-05,-3.731755032696517326e-05,2.160029706002637790e-05,-3.644295396897995675e-05,8.812923787640839987e-05,-8.002299660585311431e-05,4.488181680653907175e-05,3.548049214253061434e-06,-4.900351301441111521e-05,-3.121403916461664151e-05,3.603066627954270651e-05,4.940467753442259898e-05,1.327194914749242356e-04,-3.563332539995081583e-05,2.186342900980539985e-05,4.813824593605943284e-05,1.066443375760831123e-04,-2.930609618346796273e-05,-1.093943712977606342e-04,9.136397623367309580e-05,-5.558759989042887456e-06,-4.124527945833587257e-06,-2.561680696388124890e-05,2.840369077239663888e-05,-1.010301638037887568e-04,1.417091394483686591e-04,-4.792507510091012285e-05,-5.709967443515614497e-06,-2.949579910767059681e-05,-1.841531460953514912e-05,2.760079813168333639e-05,-1.392249104300994069e-05,-3.845753923134286067e-05,6.931072345320241520e-06,2.853559851125892549e-05,1.478156999092804420e-04,-5.919772903156751194e-05,-6.606204154814534146e-05,-2.079622408159176479e-05,5.918156937003029818e-05,-2.811559362749745363e-05,-6.259744987617800844e-07,1.207357805782996988e-04,-5.301475160410061690e-05,-1.601729526020488213e-05,-1.962424027116765424e-05,5.392434855608130339e-05,-5.671956142244137012e-05,8.859477403333387750e-08,-5.621506794123916519e-05,-3.281535313663513107e-05,-4.929881351783706709e-05,-4.952438802225454068e-05,8.825417876966465218e-05,3.482345105552783662e-05
-5.532606833253631023e-05,-7.087348058267104074e-05,-1.850601926484803661e-05,6.061640168569873150e-05,-1.198309433786301369e-05,-5.574886514382217789e-05,-9.617864065925102115e-07,-4.744586456856680082e-05,3.822733012783318356e-05,-2.525906381245939905e-05,-3.938289412977946988e-05,3.344395080477514796e-05,4.932396969290440552e-05,4.540956928679646033e-05,-9.330729328008457752e-05,1.418616995693400815e-04,1.356255342176675832e-04,4.237205242039964560e-05,-1.541704660722122058e-04,3.983089711876604391e-05,1.034211076003391320e-04,-7.231396373330631724e-05,-2.256913737418131575e-06,-1.239029497814397288e-04,-4.361788710304579899e-05,7.883639331627100683e-05,-3.188054058969620318e-05,1.663351149635915156e-05,-4.641536804796468597e-05,-1.538969156388453894e-05,2.851822906832507426e-06,3.363754074447554782e-06,1.004061577207941621e-05,-5.956142076370075835e-05,3.395051082907113281e-05,7.508944222922551439e-05,6.594568182351405006e-05,5.351222965061738925e-05,-2.982988994344848202e-05,-2.652662511705842135e-05,3.296869492357103941e-05,-5.459779458906798358e-05,1.210882761217623127e-04,1.326309205282906196e-05,-2.593219787282724243e-05,4.053222269749946326e-05,2.402814116815135781e-05,2.921162757569829963e-05,-1.521130313012742136e-05,3.511353469488660042e-05,5.287879184729770403e-05,-1.256550966149972142e-04,2.668159435490928744e-05,9.808779112980081115e-06,-3.778937096867549603e-06,-6.232708229961238472e-05,1.060551106280433067e-04,5.114470968169104839e-05,-1.239228369851598947e-05,4.736443835848363598e-05,-2.337915531825513865e-05,-2.278517493740607946e-05,-2.226074365402490565e-05,1.477282380756259579e-05,-1.535280886985713940e-05,9.688170721504780472e-05,-1.154015225969079971e-04,2.758100390648667152e-05,-8.380110464438580065e-05,2.613302055793609619e-05,-3.380278556426844665e-05,-5.530409821751162931e-05,9.445859901203575658e-05,1.648913055203636644e-04,1.907095987723008047e-05,1.890086614565153781e-05,5.605692094739053228e-05,2.115877943461680040e-06,3.605170136888541859e-05,-3.039375483024201437e-05,-5.037924310773699168e-05,-8.730893793302922905e-05,-8.926410472817954296e-05,5.183041192633980294e-05,-6.350131303130531813e-05,3.650212156660422627e-05,2.193356233354372146e-05,-5.487571945225625317e-05,-2.528346312395811666e-05,1.576913445864682785e-04,2.542078388909143900e-05,-7.497929985821790160e-05,-5.445651476773095913e-05,9.786487616532149841e-05,9.035308943214908839e-06,3.241535782869274296e-05,-2.067997297338683264e-05,-2.709271858766935297e-05,1.062607607157290047e-04,6.048408687327858756e-06
1.258172253488254585e-03,4.512734004055560157e-04,-1.264393367453306438e-03,4.145400632304379332e-05,3.081447328625632203e-04,-2.379276846647906778e-03,8.831919895088941692e-04,-1.548890896342693243e-03,9.032749406995453580e-05,-9.202951676896902285e-06,2.013085532943542991e-03,-9.544537169947497771e-04,4.377338019606604548e-05,4.319028768063103770e-05,8.978705975287810601e-04,1.206169428766892641e-03,1.021711029370181434e-03,-4.961483886233304094e-05,9.157786776976422933e-05,-9.377663694083876409e-07,2.148596155472188522e-03,-3.989227711398939244e-04,-1.792028175893085342e-04,-2.257075828631526990e-03,2.212365536281161692e-06,2.259426123842228282e-03,-2.528966999540064112e-03,1.151591200632268597e-03,-1.376975736328323735e-03,1.112061655813472908e-04,-5.378326897667167492e-04,4.299871567380709287e-05,-3.471650145508057514e-05,-6.950365379613170991e-04,-3.676369919631620851e-05,1.129319072806653711e-04,1.260563191147555764e-04,5.734260411870763545e-04,-4.401465001442816997e-05,-1.161803242030344649e-03,-6.468568795778050016e-05,2.819293600799134338e-05,-1.302873258715956392e-04,-9.215589726833833839e-05,-6.487360044950077635e-05,-8.926937813116561735e-04,1.833820420630913255e-05,5.494404471742607259e-05,3.220634728859161390e-03,-7.306877823111569822e-05,-1.454564061012557247e-06,-3.660782844215856521e-03,2.265581535496344551e-04,1.198409282092424829e-03,-1.431196971583677474e-04,1.012994734414401118e-04,-5.261377067925321425e-04,9.704599073286384507e-04,-8.769888842599929055e-04,-3.519016978256081203e-04,7.616051428736004257e-05,2.649718475861222541e-05,-4.706099940368835337e-05,-6.003878736755940661e-05,5.264211368905393433e-05,4.373397130310206559e-05,-6.770825101090513195e-05,5.096216683875474896e-04,9.752043391397616256e-05,1.252518501542740130e-05,1.020196915082140394e-04,-1.651597549375497442e-03,-1.724232811279574466e-04,5.228618924775296252e-03,-5.175496901762889103e-04,-8.620367898221611492e-05,-1.828105708449422723e-04,-5.344020229133079804e-05,1.795166363339568017e-03,-4.342790770661793544e-07,6.727200276768359986e-05,-7.710841330014291031e-04,-1.111331997132765506e-04,5.504239093080434382e-04,-1.198393700479227861e-03,-1.307665056278917843e-04,-1.559323703160015069e-04,8.984562793593350947e-04,-6.008507412706159023e-06,4.511742015508851266e-04,-1.039576835541594635e-04,-1.043394701752265244e-03,-1.883758520312048138e-03,1.245991545285324439e-04,9.132320109742917205e-04,-6.609352752939189274e-05,-7.548977508325002515e-06,-7.185179141269132223e-05,1.367979322341089220e-03,-4.734202650957820813e-04
1.911089703301759642e-03,7.326691298669145598e-04,-1.917885694179528129e-03,3.009741600110844219e-05,3.521568224815115620e-04,-4.010332625218927978e-03,1.665249263975483339e-03,-2.698319413518471873e-03,-5.547268342789244419e-05,7.245442893826061013e-05,3.558020866583677059e-03,-1.591109360898241253e-03,3.964217316965127779e-05,8.598104376866919259e-05,1.449950780693560776e-03,1.984437621656467542e-03,1.686656179443349422e-03,-2.875659843827538199e-05,-5.209947937897634458e-05,7.987491113781469319e-05,3.633212294716077744e-03,-8.134380663739923349e-04,-2.957971621008374059e-04,-3.651531147292714444e-03,3.554645509660678374e-05,3.932488796541931848e-03,-4.243923983880763459e-03,2.174227642006422781e-03,-2.190834842689022306e-03,-9.004683749470041888e-05,-9.777613488924981767e-04,3.665249883516921036e-05,8.265788286598694688e-05,-9.754563728426964746e-04,7.769777500987815749e-05,-9.074312169011510584e-05,6.307937459100891099e-05,7.226178219599026448e-04,1.648591094904405330e-04,-2.170819738282436968e-03,6.125631115682625459e-05,3.183380702269983842e-05,-2.022487616192866525e-05,-1.574010230512288465e-05,1.600785226555008144e-06,-1.436953190885644025e-03,-2.582757173992353096e-05,1.119764534785412170e-04,5.269413189527465471e-03,3.481260908020242490e-06,9.351200822761358266e-06,-6.572430561532313469e-03,4.084026996367594808e-04,2.003426428271567073e-03,2.124829203427050983e-04,-5.188920689618708326e-05,-1.280313403950274426e-03,1.600660531351182948e-03,-1.420999907117022386e-03,-5.587600072662306369e-04,6.152149697174054367e-05,4.108060928878848263e-05,-7.938968628556128637e-06,4.129853134694810624e-05,1.819135637772054126e-04,-9.040875017448636532e-05,-3.063871319321190170e-04,9.453146587044427120e-04,3.201456017896604133e-05,1.034603122792587555e-04,2.221013540245191391e-04,-2.540341531863287566e-03,1.115918585124058557e-04,8.825588951366541632e-03,-8.117596230422370563e-04,5.520690681693048187e-06,-3.553869377920288353e-04,1.508092147397769168e-04,2.857968838107654685e-03,1.573929325910765613e-04,1.230427633682328211e-04,-1.527096249665305062e-03,-1.627341806612990082e-04,1.041784105472199793e-03,-1.589407788464012976e-03,-9.433008703671004653e-05,-1.329349299854202409e-04,1.887581557643999708e-03,4.727998956014473579e-05,6.702619295751876703e-04,1.338108921466739646e-05,-1.796581851634172040e-03,-3.282701492388182592e-03,-4.126670003068433346e-05,1.537771864794002094e-03,-1.192969158704208489e-04,-1.145888973352251220e-04,-5.786089192451518681e-05,2.187933049473532454e-03,-7.357016026424791685e-04
2.329615832182828014e-03,6.157188626952699462e-04,-2.257537844089373049e-03,1.584447241075987410e-04,7.162985070121557617e-04,-5.079705386028052737e-03,2.067550123873133135e-03,-3.049170736673502934e-03,-2.292517469426363821e-04,1.263894369382827275e-04,4.165984517739980408e-03,-1.940963551295231664e-03,6.372367083448876102e-05,-5.033239878054408025e-05,1.985503355601459310e-03,2.735687784674629627e-03,2.107845766942124076e-03,1.196658077016902262e-04,7.070562155646488824e-05,8.236710911334476260e-05,4.574811029920191133e-03,-4.838560891714242156e-04,-8.719398575008186847e-04,-4.197743624636390662e-03,-1.329127206646363387e-05,5.110158770115099357e-03,-4.611758972537668110e-03,2.673167664932822509e-03,-2.409930310714934049e-03,-1.842911942981420841e-04,-1.109906156498591126e-03,-2.422284274090738033e-04,-5.824262049587514920e-05,-1.165963128024925409e-03,6.870886925885710806e-05,-1.015517593370806308e-04,7.914653773768150853e-05,5.272086338057492419e-04,1.719855582886415410e-04,-2.640773893079029905e-03,4.642101404186733412e-05,-6.875448568675578674e-05,-1.015205230561137112e-04,1.345148003947342348e-04,3.414711757898127031e-03,-1.811771087745675524e-03,3.513502028328089547e-05,-4.464553769303350960e-04,6.243710522523981954e-03,2.887858566262066151e-05,1.345324587769436322e-04,-8.208654004107118415e-03,1.336181694018402459e-04,2.501800458652283458e-03,1.346869742545359777e-04,2.263705693926828608e-05,-2.333590552036321139e-03,6.253644684762059598e-04,-1.528328605796015153e-03,-7.343563246343030827e-04,1.373765175250576736e-04,-5.212298873657944710e-05,-8.728670475881095223e-05,-4.389171957480608261e-05,2.183159978816041295e-04,2.307436803902102333e-04,-1.283112671091590762e-04,1.012674421664960626e-03,1.960118205690541699e-04,-5.494855727820377033e-05,5.006242627485789397e-04,-3.624156181430971714e-03,-1.647540845370690514e-04,1.084280631176308927e-02,-9.452130345210983057e-04,-7.605549981231265588e-04,-3.091467972812442911e-05,-2.107932738246827355e-04,3.672955066082299238e-03,-9.486129956401301191e-05,1.982938965787691066e-05,-2.373096278275546155e-03,6.943567929584479586e-05,1.191719998872670713e-03,-3.722397255924978811e-03,4.263513688545296542e-05,-1.421553882243080716e-04,2.256915664605264448e-03,7.259538924446412654e-05,3.581950883160308751e-04,6.334238764565452626e-05,-2.487878666025036128e-03,-3.787416440520768781e-03,-8.062857355764208283e-05,1.870895484101056357e-03,3.862435235369851214e-04,-1.157296559410190737e-04,-1.468169163670524145e-04,2.656787006760354293e-03,-7.557204321778273606e-04
5.511067057262632272e-04,-1.714893770969256774e-05,-6.187377567817560313e-04,1.975410553202355595e-04,1.344432852686747171e-04,-1.503130150960569223e-03,5.823644773327458493e-04,-6.838356009275014863e-04,-3.192108578889505267e-04,4.422393593416831510e-05,1.185735834791542794e-03,-5.109791917816707864e-04,3.720884439624150427e-06,-2.266531415340760375e-05,6.713089051912940084e-04,8.627373890843226256e-04,5.284397886493279314e-04,1.797458965982233264e-04,-3.009786857028049791e-05,-7.516830626796377178e-05,1.414156821200580373e-03,-9.643855175515823235e-05,-2.696880747896440657e-04,-1.102588208228201224e-03,2.728760284176818507e-06,1.506607547094066532e-03,-1.387664153788561571e-03,7.588099763014366592e-04,-6.517550249239042592e-04,-3.542618546163499713e-06,-2.926097909327124891e-04,-1.298466985159805207e-04,-7.919643319199814720e-05,-2.274196266102388201e-04,-4.587606909065715160e-05,-1.422768414273274629e-04,5.789548931112153545e-05,2.324546226770132708e-04,-2.852178180789927624e-05,-7.451251997375350159e-04,4.658493631226453744e-05,-8.575782383265927622e-05,-4.737548381957979712e-05,3.981436671877539100e-05,8.159787927437576549e-04,-4.044159146102024979e-04,-5.000187313319445806e-06,-1.588208050576216416e-04,1.419257665385661874e-03,-5.397640774514210000e-05,1.103051256034408105e-04,-2.388074157079734215e-03,8.536402064659886937e-05,6.888175307930599926e-04,9.114282124055859198e-05,-4.787514861260569953e-05,-6.438016941357303921e-04,4.409400337808741651e-04,-3.829754502035173408e-04,-1.515437198291564550e-04,6.421704333766571648e-05,5.290346432949438748e-05,-3.061655053292560265e-05,-1.272749100024517851e-04,1.410377655917439163e-04,-1.353562396420571981e-04,6.673250480763884360e-05,2.705971570897813122e-04,2.003190194126001531e-04,-8.341798733645603293e-06,1.541047053193829908e-04,-8.157534570184895749e-04,-1.303040265551704750e-04,3.233570093060058204e-03,-2.937762864632165790e-04,-1.104322002637139803e-04,1.393882720982006615e-04,-2.094514492881628914e-04,9.710883217154192212e-04,4.159576349163780876e-05,6.333065013346392865e-05,-8.409628469858230603e-04,-8.978081844639974830e-05,3.463112587174658249e-04,-1.172100727546447271e-03,2.162307998213027635e-05,3.286148078178404336e-05,6.109798449686119990e-04,1.999279593244172461e-05,-1.190610619231715505e-04,4.538164864906437019e-05,-6.672810135020563896e-04,-1.090980733751377441e-03,-9.092537420948813170e-05,5.156953342928573270e-04,1.373039185227312869e-04,-1.297586148242660430e-04,-3.816290256199186500e-05,9.042492520792297589e-04,6.719909638900461505e-07
2.000743003670873586e-04,-6.166668134178054234e-04,-7.556380956262634906e-05,4.717064322293741587e-04,3.156932010657589600e-04,-7.977183684918349137e-04,9.348130351096259772e-04,1.798321088239799063e-04,1.016232239776458505e-04,1.006339299726007551e-04,1.082491305519134393e-03,-2.492207983211596964e-04,4.659879717779251743e-05,8.565391285597124833e-05,3.427189229430215359e-04,1.596052496755670600e-03,5.995000543446919305e-04,-6.364833659168280043e-05,-2.314732628106130864e-04,-5.415014381870689912e-04,1.719162561340940951e-03,6.577927303792299491e-05,-3.188362298887600682e-04,-6.365913082917748576e-04,-1.322486857778901615e-04,1.571917552086754717e-03,-1.789449300212182618e-03,8.823736452603218351e-04,-1.388069265524107226e-04,-8.404952712481026690e-04,-3.426232185205553045e-05,-1.042084446065027125e-04,-8.742460537617230919e-05,1.819527935584846123e-04,1.474003665904573597e-05,-1.919148493797277451e-04,-3.205968439056751058e-06,3.978185587465092707e-05,8.026712148487034979e-05,-9.277793558318054223e-04,-1.403634120729791573e-04,1.554660704414023909e-05,8.681582662822233539e-05,-8.976020374835772528e-05,6.007449387936208106e-04,-2.213716222015037172e-04,1.732568335083194892e-05,6.808428768044902304e-05,1.029188800981771686e-03,6.763044474858891043e-06,-1.913055323952163854e-04,-2.546337410525804836e-03,5.124234346223387524e-05,1.337050755095518665e-04,-6.733399671886488543e-06,3.426211831860279428e-06,-1.895228519364744972e-05,8.496957991978714309e-04,-1.032268241029436051e-04,-2.717746396793179961e-04,-4.764986688208182173e-05,1.624604431448459999e-04,-5.322594251812878970e-05,-1.276894874460414333e-04,9.627961599926824078e-05,5.681387373790481622e-04,-5.592816640160808497e-04,9.809828710228769876e-05,-1.210851581084527594e-04,-1.313356406127791343e-04,2.747037656248930222e-04,-3.913979089054112548e-04,-3.120230264827497267e-04,2.604599143895732112e-03,-1.033578447437079876e-04,-1.104771083765202075e-03,4.778888498345046777e-04,-1.141428697540358206e-04,8.808096195961758823e-04,-5.757018273924903868e-05,1.025445534716188907e-04,-3.857753377237065160e-04,-4.266525012939698597e-06,4.808992873052327912e-04,-3.889061686666928151e-04,2.476690662581914755e-05,1.754922429966353930e-04,3.730782226028633288e-04,1.885974851911704001e-04,-7.254665494022387870e-04,4.136475265873820355e-05,-6.393277345539970279e-04,-1.880299612971643051e-03,2.980317229933915278e-05,4.348685068516661449e-04,-1.951178208284567680e-04,-9.703018181260845846e-04,-2.490624746721766545e-04,1.076908003678401452e-03,-2.609624160941119647e-04
